/*
 * Copyright (c) 2026 EdgeImpulse Inc.
 *
 * Generated by Edge Impulse and licensed under the applicable Edge Impulse
 * Terms of Service. Community and Professional Terms of Service
 * (https://edgeimpulse.com/legal/terms-of-service) or Enterprise Terms of
 * Service (https://edgeimpulse.com/legal/enterprise-terms-of-service),
 * according to your product plan subscription (the “License”).
 *
 * This software, documentation and other associated files (collectively referred
 * to as the “Software”) is a single SDK variation generated by the Edge Impulse
 * platform and requires an active paid Edge Impulse subscription to use this
 * Software for any purpose.
 *
 * You may NOT use this Software unless you have an active Edge Impulse subscription
 * that meets the eligibility requirements for the applicable License, subject to
 * your full and continued compliance with the terms and conditions of the License,
 * including without limitation any usage restrictions under the applicable License.
 *
 * If you do not have an active Edge Impulse product plan subscription, or if use
 * of this Software exceeds the usage limitations of your Edge Impulse product plan
 * subscription, you are not permitted to use this Software and must immediately
 * delete and erase all copies of this Software within your control or possession.
 * Edge Impulse reserves all rights and remedies available to enforce its rights.
 *
 * Unless required by applicable law or agreed to in writing, the Software is
 * distributed on an "AS IS" BASIS, WITHOUT WARRANTIES OR CONDITIONS OF ANY KIND,
 * either express or implied. See the License for the specific language governing
 * permissions, disclaimers and limitations under the License.
 */
// Generated on: 15.06.2026 22:13:21

#include <stdio.h>
#include <stdlib.h>
#include "edge-impulse-sdk/tensorflow/lite/c/builtin_op_data.h"
#include "edge-impulse-sdk/tensorflow/lite/c/common.h"
#include "edge-impulse-sdk/tensorflow/lite/micro/micro_mutable_op_resolver.h"
#include "edge-impulse-sdk/porting/ei_classifier_porting.h"

#if EI_CLASSIFIER_PRINT_STATE
#if defined(__cplusplus) && EI_C_LINKAGE == 1
extern "C" {
    extern void ei_printf(const char *format, ...);
}
#else
extern void ei_printf(const char *format, ...);
#endif
#endif

#define STRINGIZE(x) #x
#define STRINGIZE_VALUE_OF(x) STRINGIZE(x)

#if defined (__GNUC__)  /* GNU compiler */
#define ALIGN(X) __attribute__((aligned(X)))
#define DEFINE_SECTION(x) __attribute__((section(x)))
#elif defined (_MSC_VER)
#define ALIGN(X) __declspec(align(X))
#elif defined (__TASKING__) /* TASKING Compiler */
#define ALIGN(X) __align(X)
#define DEFINE_SECTION(x) __attribute__((section(x)))
#elif defined (__ARMCC_VERSION) /* Arm Compiler */
#define ALIGN(X) __ALIGNED(x)
#define DEFINE_SECTION(x) __attribute__((section(x)))
#elif defined (__ICCARM__) /* IAR Compiler */
#define ALIGN(x) __attribute__((aligned(x)))
#define DEFINE_SECTION(x) __attribute__((section(x)))
#elif defined (__clang__) /* LLVM/Clang Compiler */
#define ALIGN(X) __ALIGNED(x)
#define DEFINE_SECTION(x) __attribute__((section(x)))
#endif

#if defined(EI_MODEL_SECTION) && (defined(__GNUC__) || defined(__clang__))
#define MODEL_SECTION(X) __attribute__((section(STRINGIZE_VALUE_OF(X))))
#else
#define MODEL_SECTION(X)
#endif

#ifndef EI_MAX_SCRATCH_BUFFER_COUNT
#ifndef CONFIG_IDF_TARGET_ESP32S3
#define EI_MAX_SCRATCH_BUFFER_COUNT 14
#else
#define EI_MAX_SCRATCH_BUFFER_COUNT 28
#endif // CONFIG_IDF_TARGET_ESP32S3
#endif // EI_MAX_SCRATCH_BUFFER_COUNT

#ifndef EI_MAX_OVERFLOW_BUFFER_COUNT
#define EI_MAX_OVERFLOW_BUFFER_COUNT 10
#endif // EI_MAX_OVERFLOW_BUFFER_COUNT

using namespace tflite;
using namespace tflite::ops;
using namespace tflite::ops::micro;

namespace {

#if defined(EI_CLASSIFIER_ALLOCATION_STATIC_HIMAX) || defined(EI_CLASSIFIER_ALLOCATION_STATIC_HIMAX_GNU)
constexpr int kTensorArenaSize = 70336;
#else
constexpr int kTensorArenaSize = 69312;
#endif

#if defined(EI_CLASSIFIER_ALLOCATION_STATIC)
#if defined (EI_TENSOR_ARENA_LOCATION)
uint8_t tensor_arena[kTensorArenaSize] ALIGN(16) DEFINE_SECTION(STRINGIZE_VALUE_OF(EI_TENSOR_ARENA_LOCATION));
#else
uint8_t tensor_arena[kTensorArenaSize] ALIGN(16);
#endif
#elif defined(EI_CLASSIFIER_ALLOCATION_STATIC_HIMAX)
#pragma Bss(".tensor_arena")
uint8_t tensor_arena[kTensorArenaSize] ALIGN(16);
#pragma Bss()
#elif defined(EI_CLASSIFIER_ALLOCATION_STATIC_HIMAX_GNU)
uint8_t tensor_arena[kTensorArenaSize] ALIGN(16) __attribute__((section(".tensor_arena")));
#else
#define EI_CLASSIFIER_ALLOCATION_HEAP 1
uint8_t* tensor_arena = NULL;
#endif

static uint8_t* tensor_boundary;
static uint8_t* current_location;

template <int SZ, class T> struct TfArray {
  int sz; T elem[SZ];
};

enum used_operators_e {
  OP_CONV_2D, OP_DEPTHWISE_CONV_2D, OP_ADD, OP_PAD, OP_SOFTMAX,  OP_LAST
};

struct TensorInfo_t { // subset of TfLiteTensor used for initialization from constant memory
  TfLiteAllocationType allocation_type;
  TfLiteType type;
  void* data;
  TfLiteIntArray* dims;
  size_t bytes;
  TfLiteQuantization quantization;
};

typedef struct {
  TfLiteTensor tensor;
  int16_t index;
} TfLiteTensorWithIndex;

typedef struct {
  TfLiteEvalTensor tensor;
  int16_t index;
} TfLiteEvalTensorWithIndex;

TfLiteContext ctx{};
static const int MAX_TFL_TENSOR_COUNT = 4;
static TfLiteTensorWithIndex tflTensors[MAX_TFL_TENSOR_COUNT];
static const int MAX_TFL_EVAL_COUNT = 4;
static TfLiteEvalTensorWithIndex tflEvalTensors[MAX_TFL_EVAL_COUNT];
TfLiteRegistration registrations[OP_LAST];

namespace g0 {
const TfArray<4, int> tensor_dimension0 = { 4, { 1,48,48,1 } };
const TfArray<1, float> quant0_scale = { 1, { 0.0039215688593685627, } };
const TfArray<1, int> quant0_zero = { 1, { -128 } };
const TfLiteAffineQuantization quant0 = { (TfLiteFloatArray*)&quant0_scale, (TfLiteIntArray*)&quant0_zero, 0 };
const MODEL_SECTION(EI_MODEL_SECTION) ALIGN(16) int32_t tensor_data1[4*2] = { 
  0, 0, 
  0, 1, 
  0, 1, 
  0, 0, 
};
const TfArray<2, int> tensor_dimension1 = { 2, { 4,2 } };
const MODEL_SECTION(EI_MODEL_SECTION) ALIGN(8) int32_t tensor_data2[2] = { 65131, -61616, };
const TfArray<1, int> tensor_dimension2 = { 1, { 2 } };
const TfArray<2, float> quant2_scale = { 2, { 5.3403418860398233e-05, 5.6543718528700992e-05, } };
const TfArray<2, int> quant2_zero = { 2, { 0,0 } };
const TfLiteAffineQuantization quant2 = { (TfLiteFloatArray*)&quant2_scale, (TfLiteIntArray*)&quant2_zero, 0 };
const MODEL_SECTION(EI_MODEL_SECTION) ALIGN(16) int8_t tensor_data3[2*1*1*32] = { 
  /* [0][0][][] */ 84,-42,-53,115,-77,10,-62,76,127,-27,-46,-22,-16,85,-41,32,124,-90,-36,-106,105,87,85,-69,-70,-101,-41,97,16,-94,-8,67, 
  /* [1][0][][] */ 59,87,85,-65,-79,87,-8,20,-38,-21,47,120,127,52,40,2,-40,5,-71,-97,-82,46,41,124,98,87,-56,-19,112,-112,-126,-16, 
};
const TfArray<4, int> tensor_dimension3 = { 4, { 2,1,1,32 } };
const TfArray<2, float> quant3_scale = { 2, { 0.0031411130912601948, 0.0033258211333304644, } };
const TfLiteAffineQuantization quant3 = { (TfLiteFloatArray*)&quant3_scale, (TfLiteIntArray*)&g0::quant2_zero, 0 };
const MODEL_SECTION(EI_MODEL_SECTION) ALIGN(16) int32_t tensor_data4[32] = { 0, 585, 589, -487, -456, 650, -452, 593, -539, 159, 612, 581, 617, 586, 220, -539, -667, 315, 69, -376, -492, 698, 590, 642, 655, 637, -112, 915, -63, -357, 812, -507, };
const TfArray<1, int> tensor_dimension4 = { 1, { 32 } };
const TfArray<32, float> quant4_scale = { 32, { 3.7327547033783048e-05, 4.162104960414581e-05, 4.1093378968071193e-05, 3.845600804197602e-05, 3.8401482015615329e-05, 3.7995272577973083e-05, 3.9942195144249126e-05, 4.1797586163738742e-05, 4.1592971683712676e-05, 4.1063278331421316e-05, 4.1811326809693128e-05, 4.1620540287112817e-05, 4.0931761759566143e-05, 4.131914465688169e-05, 4.088263085577637e-05, 3.8458591006929055e-05, 3.5502765967976302e-05, 3.9725939132040367e-05, 3.9267084503080696e-05, 3.8627476897090673e-05, 3.6714362067868933e-05, 3.8584814319619909e-05, 4.0485097997589037e-05, 3.8811704143881798e-05, 4.1201707063009962e-05, 4.0691815229365602e-05, 4.1226219764212146e-05, 3.8838912587380037e-05, 4.108702705707401e-05, 3.8063692045398057e-05, 4.2341351218055934e-05, 4.0597369661554694e-05, } };
const TfArray<32, int> quant4_zero = { 32, { 0,0,0,0,0,0,0,0,0,0,0,0,0,0,0,0,0,0,0,0,0,0,0,0,0,0,0,0,0,0,0,0 } };
const TfLiteAffineQuantization quant4 = { (TfLiteFloatArray*)&quant4_scale, (TfLiteIntArray*)&quant4_zero, 0 };
const MODEL_SECTION(EI_MODEL_SECTION) ALIGN(16) int8_t tensor_data5[32*1*1*48] = { 
  /* [0][0][][] */ -41,-56,113,9,104,-16,-98,-112,67,-110,-121,-2,60,9,-42,57,-62,-36,-73,-62,-79,-115,3,118,-127,8,83,-54,118,-4,-24,-91,91,-69,-104,69,-123,-89,-102,30,81,-96,-108,109,55,-121,118,-22, 
  /* [1][0][][] */ -48,37,-61,8,-27,90,48,19,92,-105,-102,114,75,-19,35,76,109,-31,45,127,-36,5,45,37,48,28,-38,110,21,16,109,-54,64,114,1,38,61,70,-3,-52,-51,18,-13,-100,-27,46,-21,-49, 
  /* [2][0][][] */ 54,41,-51,103,-10,-49,99,105,-88,81,-35,125,100,-8,93,-100,-55,-17,44,65,-86,-5,120,31,-12,90,108,13,-58,91,90,104,-64,-10,-82,-97,-77,104,116,-15,-106,-65,23,-10,-76,127,-17,-72, 
  /* [3][0][][] */ 74,16,39,-25,-81,53,-125,36,54,30,69,-3,93,108,73,17,110,99,-65,11,117,-100,-76,-127,-28,-121,-91,120,42,-113,85,3,-65,-39,-23,-22,-103,-31,36,57,-34,-101,-109,1,72,26,-55,-96, 
  /* [4][0][][] */ 53,109,-6,50,-36,-32,25,10,60,98,-10,49,23,-42,-20,-76,-26,-11,-74,8,107,-103,86,21,-26,-11,66,-64,-59,30,-78,-63,71,115,9,-114,-58,-13,-127,43,-60,-73,-84,-94,33,105,32,58, 
  /* [5][0][][] */ 113,-91,94,100,55,-113,41,71,126,-127,2,-62,36,114,49,51,70,75,-68,116,45,66,29,-18,-98,-57,-12,-91,63,44,29,-96,-34,13,-65,29,-113,-29,61,36,-84,-44,53,103,-26,36,48,-49, 
  /* [6][0][][] */ 14,-49,111,73,-91,-70,-7,62,-20,-86,7,-94,83,52,113,-126,45,-2,-4,100,-84,-126,107,55,-67,-88,-10,-59,-33,-121,43,-83,-95,-127,-51,-112,-13,37,-115,77,84,53,19,-18,-116,104,-91,-49, 
  /* [7][0][][] */ 124,71,-27,-32,-59,123,-8,10,127,6,-93,26,66,-78,56,84,58,26,9,123,64,45,5,95,-55,111,47,61,-65,116,-8,46,32,35,76,109,-94,96,1,-16,104,-64,93,67,59,8,111,-103, 
  /* [8][0][][] */ 5,30,-52,-98,48,17,-85,-31,-2,50,52,86,-7,-44,-93,-81,-69,84,-72,7,20,-34,71,98,-127,82,40,82,-77,8,-99,105,87,-42,37,-12,107,-6,-29,59,69,90,-118,-112,-13,-35,-18,102, 
  /* [9][0][][] */ 1,23,122,60,98,-96,-38,-118,51,63,-2,62,-25,-63,-94,-13,11,3,-93,-54,12,106,-105,-95,127,8,-13,41,1,-48,-80,111,61,13,31,-21,-68,21,-34,-29,57,-58,53,-86,83,22,-92,56, 
  /* [10][0][][] */ -52,86,101,-55,-4,113,117,38,49,28,24,-56,109,88,-22,23,-32,89,-86,-51,-8,39,66,-58,44,64,-112,-105,-37,89,-80,-69,88,109,127,82,-30,17,-22,46,-24,125,-100,-38,-87,-47,7,-53, 
  /* [11][0][][] */ 117,15,-5,112,127,55,64,40,121,88,-75,120,4,-75,38,-53,-55,-91,73,50,41,84,33,-98,-91,-83,-18,74,89,4,37,-9,-83,-61,62,55,-53,84,-18,-47,-15,114,-65,2,-33,-48,-80,-84, 
  /* [12][0][][] */ 22,72,-44,12,100,19,-23,46,-64,51,-29,25,-33,21,60,-67,-94,-22,-37,-70,38,1,27,109,-54,-38,104,-95,104,26,-24,127,-81,-58,-35,26,7,-64,-7,55,127,52,-101,-44,-16,-72,-31,123, 
  /* [13][0][][] */ 118,-55,112,106,105,124,92,75,84,-105,13,-17,101,79,77,-36,-112,-60,-60,39,78,-17,127,-36,-51,51,12,24,-76,-77,94,48,47,114,-10,47,-74,-19,36,81,-52,88,-43,10,-34,39,7,-24, 
  /* [14][0][][] */ -52,-99,93,73,81,-24,-11,-109,-79,-44,68,83,-25,-85,-86,-82,-52,-57,18,30,-39,37,2,68,-119,-72,-33,25,-109,-114,-79,43,107,-20,-29,11,98,121,39,-127,-3,-106,39,85,69,-113,53,-85, 
  /* [15][0][][] */ 13,-31,-36,71,90,-100,57,-111,54,1,-76,4,106,-4,-103,-127,93,4,-106,18,44,13,71,109,75,64,38,97,15,51,62,-115,2,0,-74,-11,-78,113,109,-82,9,111,-58,-24,22,-91,-51,-88, 
  /* [16][0][][] */ -87,-2,109,-80,37,119,-74,35,44,64,-123,73,-26,-62,-71,-81,126,81,72,64,117,81,-54,50,-53,52,-79,70,-127,4,35,4,-124,78,55,58,-49,52,-68,-91,14,-65,74,111,65,108,109,-18, 
  /* [17][0][][] */ 29,-120,38,92,-36,-109,-58,-93,53,-100,75,57,112,58,-111,61,24,58,114,127,-87,-6,16,-44,35,80,-93,29,120,-45,-26,88,-44,-15,42,10,-46,112,-83,-21,-90,-32,-14,-23,0,14,92,-127, 
  /* [18][0][][] */ -98,111,114,-64,-4,-107,-99,6,2,89,-99,-41,-36,48,65,-53,39,-19,61,-22,105,-43,25,-83,39,-88,-1,127,39,41,6,46,53,-20,-107,-111,-26,36,-37,74,-37,-1,-52,1,-107,28,38,1, 
  /* [19][0][][] */ 18,30,77,38,58,-91,98,93,99,-46,35,-14,-103,37,-61,61,85,-112,112,58,-26,82,-60,11,81,-85,36,-63,-99,-127,-70,46,85,-88,32,-4,7,-75,-62,-105,44,-125,-89,14,-88,42,98,-98, 
  /* [20][0][][] */ -15,77,72,99,-102,95,14,58,11,21,-95,-1,-13,93,39,-87,-57,-46,-78,-41,20,-55,-89,-84,78,-86,-116,51,19,7,-50,120,109,43,-22,56,41,-41,-24,-127,-99,-45,-104,-113,-33,-76,-79,115, 
  /* [21][0][][] */ 107,81,87,-98,115,-71,89,29,7,-75,-78,55,16,47,-43,-84,-118,-22,39,-3,125,-41,85,-77,72,-81,-42,82,27,15,3,-11,4,32,-87,-110,127,113,-112,-29,4,19,40,-25,-100,-83,-85,96, 
  /* [22][0][][] */ 42,-58,-66,-89,102,-47,121,69,-90,88,-75,-96,127,-119,-105,-77,45,97,-102,-50,101,-64,43,43,103,3,-111,100,-49,-68,-55,-100,55,71,30,23,14,-7,-49,-109,14,-2,12,98,64,-112,97,-15, 
  /* [23][0][][] */ 75,-92,15,70,113,-111,15,-97,70,-91,89,89,29,-107,30,-31,92,-26,-103,116,108,-76,119,-26,-4,-5,85,27,85,61,86,-31,-40,55,30,45,111,2,-107,17,-101,11,18,-123,-67,-86,127,31, 
  /* [24][0][][] */ -68,-64,-93,-58,-72,-100,-56,-79,77,111,80,57,127,65,-27,-105,-76,54,39,-40,108,-68,-44,-25,64,-19,80,58,119,67,16,-50,4,21,62,40,-43,-74,74,-10,-61,-87,114,0,30,-26,53,79, 
  /* [25][0][][] */ -79,-56,-70,1,105,-63,-92,65,57,-126,-47,33,84,5,-100,-11,-70,71,44,-99,79,96,-2,-48,27,-42,-100,30,88,-79,51,127,98,-100,55,83,108,-50,-12,-7,-73,109,-96,-1,105,52,74,41, 
  /* [26][0][][] */ 54,-111,-19,-8,-95,-2,-9,-13,-97,-102,112,90,-78,-37,12,-5,114,31,-78,-65,14,74,100,14,69,72,14,65,15,7,-86,-1,-30,-51,-97,-101,-59,89,-51,127,-92,102,57,38,-69,78,-22,103, 
  /* [27][0][][] */ 30,24,-48,-89,-107,-57,-58,1,62,123,57,-94,-11,78,104,-25,87,2,83,-69,-80,30,-11,-12,-95,64,-95,14,82,48,-15,8,83,90,-77,-72,-75,-50,-100,111,-81,23,48,36,122,44,89,127, 
  /* [28][0][][] */ 74,-6,86,44,-113,-79,-96,-75,-43,-120,45,68,-80,-88,3,101,78,108,-87,74,-28,22,-110,-73,-127,81,-99,-74,-72,-89,-11,-19,-118,14,79,57,16,-112,-55,28,103,44,-98,50,-122,-12,1,33, 
  /* [29][0][][] */ 52,60,59,-54,-92,16,-127,3,125,4,-87,-100,110,-94,-53,-43,-108,106,27,-70,-84,-38,55,4,-22,18,-51,-10,-110,-9,111,-6,51,20,-89,-64,-10,109,-15,121,52,113,-52,93,-2,111,-49,-30, 
  /* [30][0][][] */ 41,-49,-44,49,-81,37,-48,1,124,-2,14,-26,-83,31,72,20,10,49,104,-84,54,-81,-93,22,-94,38,-52,127,0,-91,-75,20,-67,-55,-100,-37,29,-1,10,38,101,-70,4,110,117,-28,114,74, 
  /* [31][0][][] */ 78,-97,32,96,44,58,-66,-107,-37,-11,-80,-94,95,-127,-54,106,-58,-96,32,44,59,31,-36,102,38,-121,36,39,-79,-80,42,104,18,16,-98,-13,93,-37,-74,-119,55,-76,-36,33,3,-58,-41,24, 
};
const TfArray<4, int> tensor_dimension5 = { 4, { 32,1,1,48 } };
const TfArray<32, float> quant5_scale = { 32, { 0.002103632315993309, 0.0023455971386283636, 0.0023158595431596041, 0.0021672279108315706, 0.0021641550119966269, 0.0021412626374512911, 0.0022509833797812462, 0.0023555459920316935, 0.0023440145887434483, 0.0023141633719205856, 0.0023563203867524862, 0.0023455682676285505, 0.0023067514412105083, 0.0023285828065127134, 0.0023039826191961765, 0.0021673734299838543, 0.0020007949788123369, 0.002238796092569828, 0.0022129369899630547, 0.0021768910810351372, 0.0020690755918622017, 0.0021744868718087673, 0.0022815794218331575, 0.0021872734650969505, 0.0023219645954668522, 0.0022932291030883789, 0.0023233459796756506, 0.0021888068877160549, 0.0023155016824603081, 0.0021451185457408428, 0.0023861904628574848, 0.0022879065945744514, } };
const TfLiteAffineQuantization quant5 = { (TfLiteFloatArray*)&quant5_scale, (TfLiteIntArray*)&g0::quant4_zero, 0 };
const MODEL_SECTION(EI_MODEL_SECTION) ALIGN(16) int32_t tensor_data6[48] = { 2397, -1866, 5777, 3445, 5239, -19, 3374, 6528, -2552, -1846, -1818, 15501, 5191, 4438, 8915, -5658, -4215, 9629, 4516, 7156, 8879, 33706, 29399, 1432, -2754, 2668, -742, -1576, 3524, 3443, 8632, 13822, -1853, 363, 13081, 5608, 13205, 3153, 2085, -2115, 6423, -3276, 11581, -735, 358, 2404, -2334, 6255, };
const TfArray<1, int> tensor_dimension6 = { 1, { 48 } };
const TfArray<48, float> quant6_scale = { 48, { 0.00015407682803925127, 0.00018950161756947637, 0.00012592172424774617, 0.00016395276179537177, 0.000100629375083372, 0.00013406251673586667, 0.00010599491361062974, 0.0001185541768791154, 0.00016738857084419578, 0.00018152185657527298, 0.00016850401880219579, 5.0849146646214649e-05, 0.00012854638043791056, 0.00012979051098227501, 0.00010054011363536119, 0.00010263198055326939, 0.00014591742365155369, 9.8755401268135756e-05, 0.00013199599925428629, 0.00011080293916165829, 9.2077534645795822e-05, 3.2363182981498539e-05, 3.4082830097759143e-05, 0.00013128037971910089, 0.00014609245408792049, 9.2744514404330403e-05, 0.00011746605014195666, 0.00014118927356321365, 0.00012949957454111427, 0.00012672370939981192, 7.9487494076602161e-05, 6.3527564634568989e-05, 0.00012067706120433286, 0.00018966726202052087, 6.8098539486527443e-05, 0.00011060017277486622, 6.3432278693653643e-05, 0.00019090159912593663, 0.00016898434842005372, 0.00016695447266101837, 8.6792941146995872e-05, 0.0001396111911162734, 7.5155163358431309e-05, 0.00016314265667460859, 0.00017648765060584992, 0.00021306227426975965, 0.00018049500067718327, 0.00011679748422466218, } };
const TfArray<48, int> quant6_zero = { 48, { 0,0,0,0,0,0,0,0,0,0,0,0,0,0,0,0,0,0,0,0,0,0,0,0,0,0,0,0,0,0,0,0,0,0,0,0,0,0,0,0,0,0,0,0,0,0,0,0 } };
const TfLiteAffineQuantization quant6 = { (TfLiteFloatArray*)&quant6_scale, (TfLiteIntArray*)&quant6_zero, 0 };
const MODEL_SECTION(EI_MODEL_SECTION) ALIGN(16) int8_t tensor_data7[48*1*1*8] = { 
  /* [0][0][][] */ -16,16,127,-13,-8,48,-6,-79, 
  /* [1][0][][] */ 90,-62,61,-78,-13,-67,127,23, 
  /* [2][0][][] */ 64,57,70,-76,-62,28,127,-30, 
  /* [3][0][][] */ -3,31,9,-18,15,-72,127,12, 
  /* [4][0][][] */ 127,-43,-57,-36,-107,-72,-26,87, 
  /* [5][0][][] */ 31,72,127,-6,27,-41,32,-47, 
  /* [6][0][][] */ 108,110,-14,127,-84,20,18,99, 
  /* [7][0][][] */ -32,-4,3,40,29,-123,-127,-31, 
  /* [8][0][][] */ 105,73,-37,83,-65,23,-127,-49, 
  /* [9][0][][] */ 127,-24,-40,46,4,-40,22,-85, 
  /* [10][0][][] */ 75,24,-9,13,-28,127,36,9, 
  /* [11][0][][] */ 121,-22,-2,-127,96,-75,-68,88, 
  /* [12][0][][] */ -60,109,78,-33,8,59,-81,127, 
  /* [13][0][][] */ 127,-5,-93,8,32,-78,26,-96, 
  /* [14][0][][] */ 104,34,2,-15,-127,25,-74,-10, 
  /* [15][0][][] */ 20,6,-105,-38,-126,-46,127,95, 
  /* [16][0][][] */ 1,-53,113,-9,127,-45,-59,-38, 
  /* [17][0][][] */ 24,-20,78,-14,127,-50,-63,-5, 
  /* [18][0][][] */ 120,-47,127,46,-27,36,-38,-7, 
  /* [19][0][][] */ 61,49,57,-59,-44,-127,18,-38, 
  /* [20][0][][] */ 41,-38,57,127,6,-73,-87,88, 
  /* [21][0][][] */ 86,-11,-68,-127,49,-66,3,113, 
  /* [22][0][][] */ -52,-127,-59,-49,44,-37,112,-57, 
  /* [23][0][][] */ -10,23,29,-43,-103,-127,9,-28, 
  /* [24][0][][] */ 127,4,56,45,-7,-24,-97,67, 
  /* [25][0][][] */ 118,56,-29,-87,-15,-5,-24,127, 
  /* [26][0][][] */ -91,-33,28,-127,105,2,-49,-84, 
  /* [27][0][][] */ 112,127,-10,-53,12,63,28,4, 
  /* [28][0][][] */ 15,119,1,16,-4,-63,-18,127, 
  /* [29][0][][] */ 114,30,106,121,45,-46,-127,66, 
  /* [30][0][][] */ 127,-112,-77,120,51,0,-85,105, 
  /* [31][0][][] */ 99,-82,21,51,-81,-105,-127,54, 
  /* [32][0][][] */ -86,-68,23,-127,81,-14,-34,-83, 
  /* [33][0][][] */ 25,0,24,25,34,-67,127,37, 
  /* [34][0][][] */ -60,71,106,-92,127,-73,-85,98, 
  /* [35][0][][] */ -78,25,28,124,-7,127,30,-17, 
  /* [36][0][][] */ 93,29,-35,-127,47,-6,27,43, 
  /* [37][0][][] */ 39,48,-6,10,-77,127,63,52, 
  /* [38][0][][] */ -25,-74,27,112,19,58,1,127, 
  /* [39][0][][] */ 16,3,-127,44,-9,-39,-27,71, 
  /* [40][0][][] */ 70,11,-99,-1,-45,59,-52,127, 
  /* [41][0][][] */ 32,3,20,-44,-111,-127,-16,4, 
  /* [42][0][][] */ -77,54,-91,102,-8,92,-26,-127, 
  /* [43][0][][] */ -10,-1,-30,-127,-19,9,-10,-75, 
  /* [44][0][][] */ 68,21,19,62,28,127,-49,30, 
  /* [45][0][][] */ 4,72,-27,15,127,-30,-71,-15, 
  /* [46][0][][] */ 60,-69,8,127,70,26,-51,86, 
  /* [47][0][][] */ -13,-84,43,-17,127,19,45,25, 
};
const TfArray<4, int> tensor_dimension7 = { 4, { 48,1,1,8 } };
const TfArray<48, float> quant7_scale = { 48, { 0.0029116342775523663, 0.0035810668487101793, 0.0023795792367309332, 0.003098262706771493, 0.0019016223959624767, 0.0025334181264042854, 0.0020030164159834385, 0.0022403525654226542, 0.0031631900928914547, 0.0034302708227187395, 0.0031842689495533705, 0.00096091098384931684, 0.0024291779845952988, 0.0024526887573301792, 0.0018999355379492044, 0.0019394662231206894, 0.002757443580776453, 0.0018662093207240105, 0.0024943666066974401, 0.0020938750822097063, 0.0017400156939402223, 0.00061157642630860209, 0.00064407306490465999, 0.0024808433372527361, 0.0027607514057308435, 0.0017526198644191027, 0.002219789894297719, 0.0026680945884436369, 0.0024471909273415804, 0.0023947346489876509, 0.0015020981663838029, 0.0012004987802356482, 0.0022804692853242159, 0.003584197023883462, 0.0012868777848780155, 0.0020900433883070946, 0.0011986980680376291, 0.0036075226962566376, 0.0031933460850268602, 0.0031549867708235979, 0.0016401512548327446, 0.0026382729411125183, 0.0014202288584783673, 0.0030829538591206074, 0.0033351380843669176, 0.0040262993425130844, 0.0034108660183846951, 0.0022071558050811291, } };
const TfLiteAffineQuantization quant7 = { (TfLiteFloatArray*)&quant7_scale, (TfLiteIntArray*)&g0::quant6_zero, 0 };
const MODEL_SECTION(EI_MODEL_SECTION) ALIGN(16) int32_t tensor_data8[8] = { -18055, -5124, 1576, -16773, 2491, -3940, 18708, 16958, };
const TfArray<1, int> tensor_dimension8 = { 1, { 8 } };
const TfArray<8, float> quant8_scale = { 8, { 0.00010439284233143553, 0.00011310906847938895, 4.2574956751195714e-05, 8.0433470429852605e-05, 6.7899622081313282e-05, 0.00010473794100107625, 5.8711051678983495e-05, 7.2523340350016952e-05, } };
const TfArray<8, int> quant8_zero = { 8, { 0,0,0,0,0,0,0,0 } };
const TfLiteAffineQuantization quant8 = { (TfLiteFloatArray*)&quant8_scale, (TfLiteIntArray*)&quant8_zero, 0 };
const MODEL_SECTION(EI_MODEL_SECTION) ALIGN(16) int8_t tensor_data9[8*1*1*48] = { 
  /* [0][0][][] */ 127,-27,19,-26,20,58,11,35,114,-84,54,6,-41,63,16,-43,16,-30,-23,-17,14,-58,7,-22,-59,-32,-44,-35,-27,81,-25,34,24,-42,11,-27,61,-68,-58,2,24,-19,-73,-4,55,-26,58,-40, 
  /* [1][0][][] */ 46,-2,-11,62,50,62,23,31,69,-85,-5,1,43,22,-40,-11,-34,-46,-67,-6,8,-48,46,76,-6,-60,-7,42,-21,58,-53,127,-23,42,-18,-21,-61,-11,-7,-28,-51,-21,-38,39,18,-4,6,-89, 
  /* [2][0][][] */ -42,-29,-81,33,-87,-33,-10,49,-112,-91,-92,-37,-37,50,-127,-3,76,-91,32,-19,124,86,-28,5,53,96,18,-98,-50,5,65,7,-27,44,78,-69,67,-3,88,101,-46,102,45,-4,-83,70,-43,70, 
  /* [3][0][][] */ 1,-17,-14,38,-28,8,-7,44,76,93,-127,-29,25,-23,-25,80,-57,-13,-3,45,-22,1,71,20,4,9,-54,56,-33,29,-36,-25,14,24,29,19,51,-10,41,-2,-55,86,65,19,23,-10,-31,-37, 
  /* [4][0][][] */ -21,-67,21,-48,6,84,-61,-64,-3,-42,75,39,-56,-21,-11,22,63,16,-29,41,-75,-30,114,-15,-85,-21,-2,12,14,-27,-12,58,-48,48,-18,50,-31,40,-1,23,-31,36,-35,42,127,52,-14,9, 
  /* [5][0][][] */ -65,-61,60,-127,-17,17,-38,-50,-7,71,-51,72,-80,21,51,7,68,57,69,11,24,3,-15,-64,45,-71,6,-51,-14,-39,35,-72,-4,-41,53,-10,-15,34,34,67,93,13,18,-24,-11,-13,-31,33, 
  /* [6][0][][] */ -59,-60,44,25,-54,-68,1,-64,-104,19,-122,46,17,-47,57,14,-37,24,15,127,-22,4,79,48,-73,-15,64,17,15,-37,-32,-65,-32,63,69,-95,-40,79,53,-23,-66,58,85,-59,-3,-46,-37,9, 
  /* [7][0][][] */ 24,-4,10,-11,6,29,-43,-47,-127,-30,98,23,9,-28,27,7,18,46,4,-22,-42,9,-12,-42,33,1,-43,17,-9,-18,-28,-53,-105,-57,-38,8,56,-34,-28,-3,60,1,45,-22,14,-41,44,19, 
};
const TfArray<4, int> tensor_dimension9 = { 4, { 8,1,1,48 } };
const TfArray<8, float> quant9_scale = { 8, { 0.0075974743813276291, 0.0082318214699625969, 0.0030985088087618351, 0.005853765644133091, 0.0049415803514420986, 0.007622589822858572, 0.0042728572152554989, 0.0052780839614570141, } };
const TfLiteAffineQuantization quant9 = { (TfLiteFloatArray*)&quant9_scale, (TfLiteIntArray*)&g0::quant8_zero, 0 };
const MODEL_SECTION(EI_MODEL_SECTION) ALIGN(16) int32_t tensor_data10[48] = { -2572, -2870, 15085, 270, -1853, -8338, -3827, 16376, 8308, -4471, -6537, -7236, -1276, 20281, 12277, 361, 12522, -6525, 6274, -2654, 22234, -4074, -2574, -1369, 6560, -6272, 643, -3542, 11651, -31913, -4080, 105, -5657, -2310, -2061, -2322, 11424, -6145, 1107, -14999, -4649, 7019, -7199, -1714, 4276, -5034, 9116, -4602, };
const TfArray<48, float> quant10_scale = { 48, { 0.00015251510194502771, 0.00010878129978664219, 7.8713295806664973e-05, 8.315277227666229e-05, 0.000136321279569529, 8.6993459262885153e-05, 0.00015781747060827911, 0.00010033680155174807, 0.00013614041381515563, 0.0003113801940344274, 0.00017062411643564701, 6.8034067226108164e-05, 0.00017588405171409249, 6.8094013840891421e-05, 0.00010183896665694192, 0.00011021574027836323, 8.5855586803518236e-05, 8.6033098341431469e-05, 9.2724592832382768e-05, 0.00019809325749520212, 6.5497377363499254e-05, 0.00017402473895344883, 0.00014682210166938603, 0.00014426966663450003, 0.00010932595614576712, 0.00021599211322609335, 0.00015143265773076564, 0.00022975265164859593, 8.2686216046568006e-05, 8.6327578173950315e-05, 0.00013741970178671181, 0.00013468283577822149, 9.0354973508510739e-05, 0.00020142451103311032, 7.8096149081829935e-05, 0.000108219166577328, 0.00011083037679782137, 8.580640860600397e-05, 5.5635813623666763e-05, 8.3506565715651959e-05, 0.00011721683404175565, 0.00010913307778537273, 0.00013946018589194864, 0.0001113957550842315, 8.8567088823765516e-05, 5.3973759349901229e-05, 0.00015349902969319373, 0.00012278491340111941, } };
const TfLiteAffineQuantization quant10 = { (TfLiteFloatArray*)&quant10_scale, (TfLiteIntArray*)&g0::quant6_zero, 0 };
const MODEL_SECTION(EI_MODEL_SECTION) ALIGN(16) int8_t tensor_data11[1*3*3*48] = { 
  /* [0][0][][] */ 76,73,-28,56,0,-5,-43,7,30,-64,35,6,17,-109,-27,37,96,32,-70,3,75,18,-20,-16,69,34,21,0,-69,14,-8,-56,127,13,104,27,-34,27,127,32,-71,74,-109,-54,32,-93,-35,-5, 102,127,-64,107,23,67,-60,-127,43,39,127,34,-14,-13,-17,-9,-68,127,-84,31,51,127,40,-23,26,13,7,127,-127,76,-27,-127,11,-30,31,82,-84,127,124,39,-124,-72,79,-3,16,31,-127,90, 53,43,-5,28,-1,-13,-33,14,22,-81,32,10,10,-88,-21,-24,87,-25,-30,-6,66,18,-28,48,50,76,17,-3,-9,14,-13,-38,115,19,75,20,-14,22,83,1,-43,72,62,68,32,101,21,-18, 
  /* [0][1][][] */ -21,-40,-127,105,21,61,69,-25,30,45,-47,127,127,-1,-26,-79,-38,91,71,-16,-112,21,31,-111,26,61,19,16,-2,94,23,47,64,127,36,32,-85,3,-45,82,86,3,80,-127,12,-100,-8,127, 40,-79,-38,-127,127,22,127,-74,-127,127,2,68,-111,127,127,-21,-127,89,18,127,28,-6,127,-10,-127,127,39,-87,-90,48,-127,94,114,-104,42,127,127,72,-8,127,127,-67,-29,-6,111,-72,0,47, -8,-41,-105,51,-15,127,52,-18,27,36,-41,76,-18,13,-34,-24,-76,94,127,-37,-127,18,-65,127,7,21,22,34,49,84,42,34,6,-8,-38,-125,-47,-17,-3,31,52,67,-21,122,-12,127,-28,87, 
  /* [0][2][][] */ -34,-17,-14,26,-11,11,-5,2,30,-37,4,0,37,-88,-40,33,95,-2,9,5,-59,21,-6,2,20,2,-8,4,3,20,40,7,28,17,127,-5,-13,55,82,35,4,66,127,-26,-54,-119,-3,-24, -127,-3,-91,47,-124,6,-55,-11,24,93,-78,49,-22,-34,-20,127,-84,39,-97,-35,-68,19,3,-27,-18,63,-127,-24,-71,127,59,23,48,-21,29,25,-28,47,-49,47,-73,-127,-121,-25,-127,62,-99,87, -28,-20,-15,17,10,-3,-4,0,22,-66,-10,-19,-10,-77,-26,0,99,-42,87,14,-65,-9,3,37,17,-9,-11,-4,10,16,36,9,48,14,72,26,-5,56,100,2,8,72,-57,60,-34,98,-5,-54, 
};
const TfArray<4, int> tensor_dimension11 = { 4, { 1,3,3,48 } };
const TfArray<48, float> quant11_scale = { 48, { 0.010485931299626827, 0.0074790841899812222, 0.0054118065163493156, 0.005717035848647356, 0.0093725509941577911, 0.0059810960665345192, 0.010850487276911736, 0.0068984962999820709, 0.0093601159751415253, 0.021408446133136749, 0.011730987578630447, 0.0046775732189416885, 0.012092625722289085, 0.0046816947869956493, 0.0070017748512327671, 0.0075777065940201283, 0.0059028635732829571, 0.0059150676243007183, 0.0063751307316124439, 0.013619584962725639, 0.0045031672343611717, 0.011964792385697365, 0.010094518773257732, 0.0099190296605229378, 0.0075165308080613613, 0.0148501917719841, 0.010411510244011879, 0.015796275809407234, 0.0056849583052098751, 0.0059353141114115715, 0.0094480710104107857, 0.0092599028721451759, 0.0062122116796672344, 0.013848619535565376, 0.0053693754598498344, 0.0074404352344572544, 0.0076199648901820183, 0.0058994824066758156, 0.0038251511286944151, 0.0057413601316511631, 0.0080590555444359779, 0.0075032697059214115, 0.0095883617177605629, 0.0076588368974626064, 0.0060892882756888866, 0.0037108792457729578, 0.010553579777479172, 0.0084418803453445435, } };
const TfLiteAffineQuantization quant11 = { (TfLiteFloatArray*)&quant11_scale, (TfLiteIntArray*)&g0::quant6_zero, 3 };
const MODEL_SECTION(EI_MODEL_SECTION) ALIGN(16) int32_t tensor_data12[48] = { 36337, 10237, 1942, 1525, 5153, 3353, 7920, 7192, 3516, -7010, 13753, 1493, 10758, 3039, 6480, 2476, 10133, -1132, 10623, 266, 3387, -1123, 3253, 8007, 2834, -4467, 3223, 14502, 1095, 10420, 2781, 13538, 1037, 6020, -720, -2134, 3755, 3514, 360, 2255, 15737, -968, 19717, 3545, 1334, 5696, 5638, -2109, };
const TfArray<48, float> quant12_scale = { 48, { 2.9238226488814689e-05, 8.1882775702979416e-05, 0.00013807785580866039, 0.000141719268867746, 0.0001401671179337427, 0.00013006354856770486, 9.708525612950325e-05, 9.68581298366189e-05, 0.00012757109652739018, 0.00010583498078631237, 7.3331291787326336e-05, 0.00016265339218080044, 7.4756324465852231e-05, 0.00012104740017093718, 0.00010584457049844787, 0.00015531665121670812, 7.590821769554168e-05, 0.00015335560601670295, 8.5207160736899823e-05, 0.00013587999274022877, 0.00019149380386807024, 0.0001016158057609573, 0.00017359398771077394, 9.1956986580044031e-05, 0.00014312833081930876, 0.00013692579523194581, 0.00014327766257338226, 6.3818239141255617e-05, 0.00016556787886656821, 7.3051516665145755e-05, 0.00011580662248888984, 7.1240603574551642e-05, 0.00010744329483713955, 0.0001346664794255048, 0.00011791150609496981, 0.00017015481716953218, 0.00014502495469059795, 0.00010501001088414341, 0.00020135066006332636, 0.00013996355119161308, 5.8389021432958543e-05, 0.00016979628708213568, 4.4543547119246796e-05, 0.00013443162606563419, 0.00015923607861623168, 0.00013768217468168586, 0.00011257574078626931, 0.00014615266991313547, } };
const TfLiteAffineQuantization quant12 = { (TfLiteFloatArray*)&quant12_scale, (TfLiteIntArray*)&g0::quant6_zero, 0 };
const MODEL_SECTION(EI_MODEL_SECTION) ALIGN(16) int8_t tensor_data13[48*1*1*8] = { 
  /* [0][0][][] */ -127,34,-11,-18,57,31,3,-41, 
  /* [1][0][][] */ -1,-59,-36,-16,-55,-127,9,19, 
  /* [2][0][][] */ -79,65,3,-55,-55,43,-62,127, 
  /* [3][0][][] */ 55,47,54,-19,-50,-127,42,-24, 
  /* [4][0][][] */ 10,50,-109,26,-127,85,37,39, 
  /* [5][0][][] */ -36,43,34,-38,-84,-127,-66,-6, 
  /* [6][0][][] */ -65,127,108,-37,-81,-39,15,-36, 
  /* [7][0][][] */ -3,1,37,64,3,-127,-2,52, 
  /* [8][0][][] */ 127,30,-81,69,-75,-60,-99,-12, 
  /* [9][0][][] */ 101,-42,-68,-73,4,-26,-49,127, 
  /* [10][0][][] */ -91,-1,6,127,4,76,24,-103, 
  /* [11][0][][] */ 30,21,57,-21,14,122,127,94, 
  /* [12][0][][] */ -72,-77,-35,-82,127,-29,-24,31, 
  /* [13][0][][] */ -30,-10,-5,49,19,-127,40,74, 
  /* [14][0][][] */ 88,94,119,20,76,-127,-97,-30, 
  /* [15][0][][] */ -46,65,127,54,-7,20,37,-66, 
  /* [16][0][][] */ -112,-52,54,-74,127,0,-60,6, 
  /* [17][0][][] */ 42,-45,-47,-3,-13,127,-26,44, 
  /* [18][0][][] */ -21,127,75,-54,-60,54,94,-90, 
  /* [19][0][][] */ 22,114,82,127,-21,38,41,28, 
  /* [20][0][][] */ 10,9,64,-127,-64,-1,65,-13, 
  /* [21][0][][] */ -99,84,41,-117,117,64,127,2, 
  /* [22][0][][] */ 73,-37,-92,65,55,-48,-62,127, 
  /* [23][0][][] */ 34,-86,-127,-40,71,-9,-70,95, 
  /* [24][0][][] */ 45,-16,-95,19,-57,37,-127,119, 
  /* [25][0][][] */ -16,-21,51,6,127,-12,-81,-42, 
  /* [26][0][][] */ 18,114,127,-28,-37,-17,60,-77, 
  /* [27][0][][] */ -42,32,127,-91,20,13,96,-123, 
  /* [28][0][][] */ 52,-14,92,127,65,-34,34,103, 
  /* [29][0][][] */ 63,69,102,25,-65,26,-127,94, 
  /* [30][0][][] */ 36,-12,-81,56,-127,-37,-36,60, 
  /* [31][0][][] */ 18,127,100,-58,-78,34,103,-119, 
  /* [32][0][][] */ 63,-10,-10,33,114,127,36,-37, 
  /* [33][0][][] */ 21,-36,-127,7,22,-17,-39,71, 
  /* [34][0][][] */ 27,-51,26,-127,0,70,-14,9, 
  /* [35][0][][] */ -22,16,84,-5,14,-127,-3,-25, 
  /* [36][0][][] */ -4,15,-33,-127,-11,12,13,-40, 
  /* [37][0][][] */ 70,-10,-19,-93,-83,127,-60,-83, 
  /* [38][0][][] */ 87,-56,-22,102,57,25,-27,127, 
  /* [39][0][][] */ 127,87,29,71,-9,89,-41,-4, 
  /* [40][0][][] */ 55,-115,-127,-41,7,13,-61,119, 
  /* [41][0][][] */ -9,-60,-127,-99,-11,-81,-39,-18, 
  /* [42][0][][] */ 62,111,87,127,-75,-28,26,46, 
  /* [43][0][][] */ 127,-32,-103,-108,-70,-43,26,58, 
  /* [44][0][][] */ -11,80,124,-88,-98,-10,78,-127, 
  /* [45][0][][] */ 35,18,-127,55,-42,32,16,72, 
  /* [46][0][][] */ 54,-37,-69,-127,22,-26,-36,46, 
  /* [47][0][][] */ 88,-121,127,-69,78,-25,6,10, 
};
const TfArray<48, float> quant13_scale = { 48, { 0.000608662492595613, 0.0017045825952664018, 0.0028744153678417206, 0.0029502199031412601, 0.0029179083649069071, 0.0027075787074863911, 0.0020210579968988895, 0.0020163299050182104, 0.0026556926313787699, 0.0022032042033970356, 0.0015265634283423424, 0.0033860132098197937, 0.0015562288463115692, 0.0025198864750564098, 0.002203403739258647, 0.0032332816626876593, 0.0015802081907168031, 0.0031924578361213207, 0.0017737875459715724, 0.0028286618180572987, 0.0039863940328359604, 0.0021153721027076244, 0.003613767446950078, 0.0019143010722473264, 0.0029795530717819929, 0.0028504326473921537, 0.0029826615937054157, 0.0013285267632454634, 0.00344668491743505, 0.0015207391697913408, 0.0024107873905450106, 0.00148304074537009, 0.0022366850171238184, 0.0028033996932208538, 0.0024546054191887379, 0.0035421729553490877, 0.0030190355610102415, 0.0021860303822904825, 0.0041915876790881157, 0.002913670614361763, 0.0012155048316344619, 0.0035347093362361193, 0.00092727871378883719, 0.0027985104825347662, 0.0033148736692965031, 0.0028661785181611776, 0.0023435289040207863, 0.0030425116419792175, } };
const TfLiteAffineQuantization quant13 = { (TfLiteFloatArray*)&quant13_scale, (TfLiteIntArray*)&g0::quant6_zero, 0 };
const MODEL_SECTION(EI_MODEL_SECTION) ALIGN(16) int32_t tensor_data14[8] = { -15657, -46042, 3297, 9217, -22335, 824, -34203, -443, };
const TfArray<8, float> quant14_scale = { 8, { 0.00011091943451901898, 4.8725993110565469e-05, 5.1139690185664222e-05, 5.3275729442248121e-05, 5.4368872952181846e-05, 7.4430579843465239e-05, 5.3700856369687244e-05, 7.9188459494616836e-05, } };
const TfLiteAffineQuantization quant14 = { (TfLiteFloatArray*)&quant14_scale, (TfLiteIntArray*)&g0::quant8_zero, 0 };
const MODEL_SECTION(EI_MODEL_SECTION) ALIGN(16) int8_t tensor_data15[8*1*1*48] = { 
  /* [0][0][][] */ 43,50,-77,49,15,24,-85,-31,4,-23,-3,-38,-18,2,41,2,44,-14,46,-20,22,-34,43,-1,15,-23,-16,20,-13,-2,-15,0,43,23,22,11,127,57,32,-27,6,-18,-4,-24,79,26,17,-47, 
  /* [1][0][][] */ 62,23,13,0,35,89,-9,-28,35,65,-41,-73,121,-13,15,52,24,33,27,-99,125,-23,46,65,44,28,47,19,36,-73,63,75,57,112,10,127,70,29,30,24,94,20,42,33,21,47,122,-74, 
  /* [2][0][][] */ -24,8,80,127,-45,20,-5,54,36,76,19,-74,-41,115,28,40,-82,-100,77,0,0,67,-57,-79,-32,-43,25,-4,-115,20,1,-12,-38,-28,-90,-45,16,26,-85,-23,-20,-55,-36,21,66,-81,-26,25, 
  /* [3][0][][] */ -30,52,-74,-7,21,-81,4,66,101,-83,-44,15,-9,-15,11,62,23,5,-17,-29,-9,23,-73,42,-25,-30,40,-9,65,-35,40,-55,32,-16,-33,-46,-127,-5,-75,14,-22,-58,39,-4,-57,13,-6,-33, 
  /* [4][0][][] */ 62,-26,32,-28,-67,70,22,72,-125,-47,62,43,74,-65,-72,-64,95,64,68,-32,21,-95,-24,44,-31,-1,-57,-127,-61,-55,95,41,93,4,120,90,70,66,54,40,6,35,-56,-30,90,78,93,-56, 
  /* [5][0][][] */ 39,74,13,89,23,25,-54,-97,-97,29,-10,-2,29,57,40,-66,78,108,-23,35,-15,-73,-21,-72,-105,-80,-44,61,0,42,-32,43,4,-83,69,4,-36,127,-39,-111,-18,-40,-18,-40,0,-11,-42,93, 
  /* [6][0][][] */ 123,53,-5,127,-90,21,11,65,27,-87,73,89,85,-48,-26,-50,69,26,-70,28,78,-28,-31,-7,4,62,-48,-43,14,-44,68,61,25,-41,1,92,106,-81,2,14,-96,76,-113,56,64,111,108,-51, 
  /* [7][0][][] */ 16,19,127,46,-33,59,-83,16,-43,93,-10,-13,43,63,11,-5,-53,-14,-63,9,-9,37,4,-42,-11,47,53,-17,0,1,20,-16,-96,-19,62,29,90,-6,40,-15,-17,-30,-29,-53,-4,-32,6,24, 
};
const TfArray<8, float> quant15_scale = { 8, { 0.0059569422155618668, 0.0026168355252593756, 0.0027464635204523802, 0.0028611796442419291, 0.0029198871925473213, 0.0039973035454750061, 0.0028840112499892712, 0.0042528263293206692, } };
const TfLiteAffineQuantization quant15 = { (TfLiteFloatArray*)&quant15_scale, (TfLiteIntArray*)&g0::quant8_zero, 0 };
const MODEL_SECTION(EI_MODEL_SECTION) ALIGN(16) int32_t tensor_data16[48] = { 18821, -23978, -1153, 3743, -970, 13996, 7277, -3174, -13314, 3490, -5506, -3854, -9178, -15791, 7477, 258, -10919, 39550, -2601, -19578, 15709, -1786, -503, -2112, -1285, -2791, -5131, -520, -2529, 1205, 986, 23785, 21866, 250, 9499, 25489, -1559, 18079, -1384, 306, -4043, -12132, -2329, 4591, 4955, 34657, 16521, -5590, };
const TfArray<48, float> quant16_scale = { 48, { 7.349061343120411e-05, 6.0809765273006633e-05, 0.00080547604011371732, 0.00015711494779679924, 0.00011566924513317645, 0.0001167649170383811, 7.2162183641921729e-05, 0.00026093947235494852, 8.4700841398444027e-05, 0.00025737771647982299, 0.00010110262519447133, 9.9033495644107461e-05, 0.00013823618064634502, 8.4801758930552751e-05, 0.00010307258344255388, 8.0572615843266249e-05, 7.6595555583480746e-05, 4.8349291319027543e-05, 0.00024285982362926006, 4.2412586481077597e-05, 9.9778015282936394e-05, 0.0002636320423334837, 0.00013892007700633258, 9.632841101847589e-05, 0.00014454258780460805, 0.00016541079094167799, 0.00013821457105223089, 0.00021306143025867641, 0.00016196392243728042, 0.0001391249243170023, 8.3622406236827374e-05, 9.1481109848245978e-05, 7.9121193266473711e-05, 0.00014704631757922471, 7.7153919846750796e-05, 7.4432158726267517e-05, 0.00033934379462152719, 0.00010912768630078062, 6.9463167164940387e-05, 0.00022695025836583227, 9.9651588243432343e-05, 9.0501736849546432e-05, 0.00014716162695549428, 8.2443249993957579e-05, 0.0001189962204080075, 4.9996291636489332e-05, 0.00010024618677562103, 0.00013475053128786385, } };
const TfLiteAffineQuantization quant16 = { (TfLiteFloatArray*)&quant16_scale, (TfLiteIntArray*)&g0::quant6_zero, 0 };
const MODEL_SECTION(EI_MODEL_SECTION) ALIGN(16) int8_t tensor_data17[1*3*3*48] = { 
  /* [0][0][][] */ -58,2,43,9,127,-38,21,10,13,25,87,-14,7,21,-64,18,84,-50,-22,94,-28,13,-56,-15,-17,5,25,-45,-25,127,22,-94,-52,102,119,-83,10,-42,-127,-33,14,-15,-8,-72,1,-37,-118,32, -64,100,-6,35,-15,-85,111,-16,79,11,113,127,51,127,-17,37,99,-100,4,121,-32,-19,91,-115,-2,51,-95,24,-30,-81,97,-127,-127,-85,9,-35,-61,-26,-110,15,-51,-26,21,-127,26,-91,24,56, -24,-2,13,-4,48,-38,25,-3,17,20,18,-51,-7,-3,-65,32,63,-41,-19,95,-18,4,-66,-7,19,5,25,-106,-35,51,-55,-88,7,-2,106,-62,13,-28,-91,4,14,3,3,-59,-10,-71,-127,-14, 
  /* [0][1][][] */ -127,117,-11,-68,8,-80,7,-5,33,15,51,41,76,80,-64,40,127,-127,11,106,-26,-50,-92,-32,-127,-3,-31,11,-8,1,79,-75,-58,127,-114,-85,35,-55,45,58,-95,33,-74,56,-12,-127,14,-41, -1,127,127,127,-41,88,-127,127,127,-127,-106,75,127,86,127,-103,-44,-100,127,7,-127,127,127,7,96,121,71,127,127,-74,127,12,-59,-100,-33,-127,127,127,102,58,-45,127,-22,79,127,33,-3,-127, -74,62,-29,-52,-58,-116,11,-22,-9,1,127,41,34,72,-49,127,103,-106,-12,121,37,-74,-96,-31,27,-15,-27,19,-4,17,73,-54,-1,-30,-127,-64,23,-66,50,-127,-68,38,127,68,-29,-109,-8,102, 
  /* [0][2][][] */ -15,-16,5,-12,28,-36,17,7,41,24,124,43,12,-12,-44,91,63,-65,-52,-8,-31,6,-47,41,-13,-8,-28,-28,15,60,8,6,-25,32,-80,25,-42,-52,62,-36,80,-10,-10,-2,-22,9,8,-35, -70,113,5,19,-88,-127,63,-68,76,19,83,-59,-41,15,-55,102,57,-10,-10,127,-67,14,83,127,18,-127,127,2,21,-44,-32,-89,2,-56,-80,-100,-69,-67,44,37,127,53,-39,38,-27,-77,-89,-12, 35,-21,26,-4,-17,-46,13,14,42,22,127,18,24,-4,-38,67,42,-55,-61,5,-30,-2,-51,38,13,-11,-22,-63,9,-4,-8,13,-14,-1,-34,54,-35,-41,64,5,46,-4,33,-3,-23,-64,27,22, 
};
const TfArray<48, float> quant17_scale = { 48, { 0.0051897955127060413, 0.004294293001294136, 0.056881491094827652, 0.011095218360424042, 0.0081683862954378128, 0.0082457605749368668, 0.0050959833897650242, 0.018427148461341858, 0.0059814443811774254, 0.018175622448325157, 0.0071397135034203529, 0.006993594579398632, 0.0097620291635394096, 0.0059885713271796703, 0.0072788288816809654, 0.0056899157352745533, 0.0054090614430606365, 0.0034143533557653427, 0.017150390893220901, 0.0029951122123748064, 0.0070461714640259743, 0.018617292866110802, 0.0098103247582912445, 0.0068025658838450909, 0.010207377374172211, 0.011681058444082737, 0.0097605027258396149, 0.01504607405513525, 0.011437646113336086, 0.0098247900605201721, 0.0059052873402833939, 0.0064602568745613098, 0.0055874185636639595, 0.01038418710231781, 0.0054484927095472813, 0.0052562858909368515, 0.023963943123817444, 0.0077064312063157558, 0.0049053831025958061, 0.016026882454752922, 0.0070372438058257103, 0.0063910949975252151, 0.010392330586910248, 0.0058220168575644493, 0.0084033319726586342, 0.0035306620411574841, 0.0070792334154248238, 0.0095158778131008148, } };
const TfLiteAffineQuantization quant17 = { (TfLiteFloatArray*)&quant17_scale, (TfLiteIntArray*)&g0::quant6_zero, 3 };
const MODEL_SECTION(EI_MODEL_SECTION) ALIGN(16) int32_t tensor_data18[48] = { 995, 7609, -9155, 4683, 3212, 6930, 2677, 14156, 12627, 8944, -3062, -374, 1834, 5109, 3379, -1254, -44, 9485, 16850, 584, 3709, 13148, 3346, 7216, 14342, 10554, 1833, 11736, 3719, 4965, -2063, 11469, 1743, 10321, 11118, 6973, 110162, 17184, 5222, 22129, 3853, 1089, 5157, 1895, 5368, 3048, 2718, 4974, };
const TfArray<48, float> quant18_scale = { 48, { 0.00019433382840361446, 0.00010081942309625447, 8.5420331743080169e-05, 0.000131105916807428, 0.00015353612252511084, 9.325207065558061e-05, 0.00017612359079066664, 6.2627914303448051e-05, 7.2304508648812771e-05, 8.2641017797868699e-05, 0.00012129241076763719, 0.00012325118586886674, 0.00013370507804211229, 0.0001168255548691377, 0.00015518417058046907, 8.8585591583978385e-05, 0.00014900651876814663, 7.8510558523703367e-05, 5.7431774621363729e-05, 0.00016369896184187382, 0.00013558381760958582, 6.1367885791696608e-05, 0.00016741505532991141, 0.00010183753329329193, 6.2799575971439481e-05, 8.3422499301377684e-05, 0.00013895543816033751, 7.9056699178181589e-05, 6.5688756876625121e-05, 0.00016078460612334311, 0.00023996939125936478, 7.164933776948601e-05, 0.00020911431056447327, 7.3576091381255537e-05, 6.1028895288472995e-05, 0.00011139808339066803, 1.4293543245003093e-05, 5.5582655477337539e-05, 0.00011353298032190651, 4.5675875298911706e-05, 9.0552319306880236e-05, 0.00018192443531006575, 0.00013268159818835557, 0.00011102767894044518, 0.00012269857688806951, 9.8658405477181077e-05, 0.00015222266665659845, 7.2952025220729411e-05, } };
const TfLiteAffineQuantization quant18 = { (TfLiteFloatArray*)&quant18_scale, (TfLiteIntArray*)&g0::quant6_zero, 0 };
const MODEL_SECTION(EI_MODEL_SECTION) ALIGN(16) int8_t tensor_data19[48*1*1*8] = { 
  /* [0][0][][] */ -79,-127,-36,27,-35,-12,51,-47, 
  /* [1][0][][] */ -11,127,43,-84,6,-85,-72,90, 
  /* [2][0][][] */ -127,-63,37,7,73,-1,33,-19, 
  /* [3][0][][] */ 5,-36,-127,-58,32,-54,-36,52, 
  /* [4][0][][] */ -57,-109,98,-18,127,-58,54,1, 
  /* [5][0][][] */ -19,65,50,-93,95,31,-54,127, 
  /* [6][0][][] */ -127,98,56,66,-54,6,37,-118, 
  /* [7][0][][] */ 41,-15,55,29,51,-127,0,99, 
  /* [8][0][][] */ -12,64,-10,-35,16,104,127,-66, 
  /* [9][0][][] */ 79,127,15,-64,-76,-60,-49,106, 
  /* [10][0][][] */ 32,-9,28,1,-24,32,-127,-74, 
  /* [11][0][][] */ -72,19,-104,-79,127,22,35,61, 
  /* [12][0][][] */ 89,34,-31,-4,127,87,16,2, 
  /* [13][0][][] */ -127,-120,-6,62,-109,44,71,11, 
  /* [14][0][][] */ -12,99,-96,123,-64,127,-20,40, 
  /* [15][0][][] */ -17,-74,-29,-83,127,66,-26,56, 
  /* [16][0][][] */ 72,-81,2,47,40,-15,34,-127, 
  /* [17][0][][] */ -95,-93,-127,111,2,95,82,-105, 
  /* [18][0][][] */ 73,-11,127,5,-36,-107,-84,-30, 
  /* [19][0][][] */ -17,127,30,27,98,-112,-70,-40, 
  /* [20][0][][] */ -65,-10,-127,-39,30,-9,-4,-1, 
  /* [21][0][][] */ -127,-28,40,60,-95,-107,108,-38, 
  /* [22][0][][] */ 58,-6,-127,-63,-41,-11,-1,50, 
  /* [23][0][][] */ -22,39,127,-15,-94,29,-4,-89, 
  /* [24][0][][] */ -91,89,72,96,127,96,-7,-31, 
  /* [25][0][][] */ -56,-127,-64,29,-65,39,45,3, 
  /* [26][0][][] */ 104,119,-127,-52,-112,-20,-65,37, 
  /* [27][0][][] */ 54,52,-65,17,-127,20,-33,-11, 
  /* [28][0][][] */ -27,66,24,-73,85,105,-127,-117, 
  /* [29][0][][] */ 42,-6,0,-66,-127,3,17,-47, 
  /* [30][0][][] */ -95,-7,37,127,53,23,-38,-21, 
  /* [31][0][][] */ 7,-118,-5,-76,-127,50,-56,-104, 
  /* [32][0][][] */ -127,-5,27,-9,4,-36,4,24, 
  /* [33][0][][] */ 49,-71,-127,-122,5,22,-62,8, 
  /* [34][0][][] */ 60,100,122,2,-127,-74,84,-70, 
  /* [35][0][][] */ 101,25,15,9,-107,-42,-127,-47, 
  /* [36][0][][] */ 127,11,86,-42,5,-13,67,83, 
  /* [37][0][][] */ 122,113,-7,-10,79,82,-127,33, 
  /* [38][0][][] */ -33,99,100,127,-29,61,29,-71, 
  /* [39][0][][] */ 33,55,127,-40,99,-53,-36,9, 
  /* [40][0][][] */ 82,51,32,12,-77,-127,26,-61, 
  /* [41][0][][] */ 35,-47,13,127,-19,69,11,70, 
  /* [42][0][][] */ -19,-108,67,-48,127,-35,92,25, 
  /* [43][0][][] */ -3,-26,-98,-32,127,51,-77,124, 
  /* [44][0][][] */ 96,-17,127,-2,1,30,-54,10, 
  /* [45][0][][] */ -33,18,25,-29,-104,-127,-19,95, 
  /* [46][0][][] */ -52,89,76,37,-6,-28,46,-127, 
  /* [47][0][][] */ 42,-9,16,127,-10,-103,70,54, 
};
const TfArray<48, float> quant19_scale = { 48, { 0.0050708823837339878, 0.0026307485532015562, 0.0022289298940449953, 0.0034210344310849905, 0.0040063206106424332, 0.0024332886096090078, 0.0045957104302942753, 0.0016341920709237456, 0.0018866898026317358, 0.0021564073394984007, 0.0031649640295654535, 0.0032160754781216383, 0.0034888559021055698, 0.0030484073795378208, 0.0040493244305253029, 0.0023115230724215508, 0.0038881266955286264, 0.0020486284047365189, 0.0014986057067289948, 0.0042715063318610191, 0.0035378793254494667, 0.0016013132408261299, 0.0043684728443622589, 0.0026573147624731064, 0.0016386712668463588, 0.0021767991129308939, 0.0036258569452911615, 0.0020628792699426413, 0.0017140605486929417, 0.0041954601183533669, 0.0062616816721856594, 0.0018695940962061286, 0.0054565593600273132, 0.0019198701484128833, 0.0015924677718430758, 0.0029067846480756998, 0.00037297097151167691, 0.0014503553975373507, 0.0029624919407069683, 0.001191851100884378, 0.0023628422059118748, 0.0047470759600400925, 0.0034621497616171837, 0.0028971193823963404, 0.0032016558106988668, 0.0025743597652763128, 0.0039720479398965836, 0.0019035859731957316, } };
const TfLiteAffineQuantization quant19 = { (TfLiteFloatArray*)&quant19_scale, (TfLiteIntArray*)&g0::quant6_zero, 0 };
const MODEL_SECTION(EI_MODEL_SECTION) ALIGN(16) int32_t tensor_data20[8] = { 4010, -2550, 16404, -8636, -15409, -16669, -9202, -2270, };
const TfArray<8, float> quant20_scale = { 8, { 6.1867140175309032e-05, 0.00010661476699169725, 7.7856231655459851e-05, 0.0001016746464301832, 0.00010904244845733047, 8.5562096501234919e-05, 0.0001629053003853187, 0.00019597560458350927, } };
const TfLiteAffineQuantization quant20 = { (TfLiteFloatArray*)&quant20_scale, (TfLiteIntArray*)&g0::quant8_zero, 0 };
const MODEL_SECTION(EI_MODEL_SECTION) ALIGN(16) int8_t tensor_data21[8*1*1*48] = { 
  /* [0][0][][] */ -21,-31,52,-56,57,86,68,96,115,-45,-16,59,-32,-25,15,-15,49,47,12,-53,-34,26,-89,-40,31,-6,19,-78,-34,25,48,26,29,50,63,19,127,-56,-78,2,-55,-66,-29,-2,-73,-90,-127,57, 
  /* [1][0][][] */ -9,-2,-38,48,0,14,-39,-15,-58,27,19,83,-30,3,-26,127,38,59,10,-28,-44,-21,-64,21,11,-10,-16,-83,45,-10,-55,-63,63,-34,-33,-54,35,34,50,-39,6,65,50,-42,0,-34,-52,-20, 
  /* [2][0][][] */ 4,-73,-25,-8,-30,18,0,13,107,19,-5,-20,-31,-77,35,10,3,-57,-21,-3,-97,52,4,26,4,46,-38,-27,-19,-39,43,-44,-95,25,-52,54,-64,57,-20,-23,127,-20,0,37,27,37,-56,-35, 
  /* [3][0][][] */ -27,-113,90,59,26,-103,-19,-14,-127,124,56,-55,52,12,-23,20,54,32,-29,47,71,80,35,-62,9,81,62,32,-28,-68,10,16,-24,2,53,9,-21,-77,-40,46,-30,-15,19,-71,-80,20,-4,24, 
  /* [4][0][][] */ -15,59,-15,73,32,6,7,-2,-52,77,46,71,1,18,61,12,10,-104,-7,-16,93,-15,-102,58,74,-22,28,27,46,24,-9,-56,-52,127,1,15,62,-28,21,21,-25,43,-2,-26,0,-54,-30,21, 
  /* [5][0][][] */ -30,4,-4,-67,-127,33,118,27,14,55,-25,-23,-101,-6,62,-35,-84,36,-54,-85,3,101,-7,36,109,30,-2,12,-28,-14,122,-57,-13,105,77,87,-20,48,87,33,-22,-35,-28,39,-62,47,28,58, 
  /* [6][0][][] */ 2,-21,-11,27,-56,-52,14,5,23,-15,41,6,-52,-24,33,56,3,-61,8,-59,70,-23,-1,-30,9,0,9,38,39,3,10,127,43,-14,-14,23,1,-8,22,15,2,38,-25,-49,-4,-26,-22,38, 
  /* [7][0][][] */ -25,-18,-46,-3,8,-24,4,11,39,6,22,-2,-8,11,3,0,30,-5,1,-3,-60,9,11,-26,-2,-7,-51,-13,-14,-16,17,31,19,-11,28,11,-21,127,-14,-38,-41,-3,-45,-35,23,65,-71,-11, 
};
const TfArray<8, float> quant21_scale = { 8, { 0.0032634371891617775, 0.0056238346733152866, 0.0041068475693464279, 0.0053632478229701519, 0.0057518929243087769, 0.0045133251696825027, 0.0085931103676557541, 0.010337539948523045, } };
const TfLiteAffineQuantization quant21 = { (TfLiteFloatArray*)&quant21_scale, (TfLiteIntArray*)&g0::quant8_zero, 0 };
const MODEL_SECTION(EI_MODEL_SECTION) ALIGN(16) int32_t tensor_data22[48] = { -555, 34541, 35769, -1490, -2881, -16496, 28220, 22740, -15973, 3756, -1972, 22190, 25931, -19041, -14741, -4539, -1104, 34469, -1564, -2252, 58533, 14141, -12481, -8556, 20824, 15015, -4104, -2345, -6400, -527, 36965, -2449, -5974, 14716, 16399, 18968, -3738, 51760, -5054, -458, 33076, -364, -5217, 20881, -925, -1819, -10104, 16657, };
const TfArray<48, float> quant22_scale = { 48, { 0.00026015937328338623, 7.7940319897606969e-05, 7.8197903349064291e-05, 8.0776888353284448e-05, 5.80943378736265e-05, 0.00010082062362926081, 9.2631489678751677e-05, 8.4955165220890194e-05, 0.00017585142632015049, 4.3080101022496819e-05, 0.00012098447041353211, 8.73681710800156e-05, 8.6858824943192303e-05, 0.00018424628069624305, 6.9831730797886848e-05, 7.1224254497792572e-05, 7.1426678914576769e-05, 0.00012022265582345426, 0.00030834836070425808, 8.355823956662789e-05, 4.2811090679606423e-05, 6.8383189500309527e-05, 8.2438687968533486e-05, 0.00011013900075340644, 7.6260468631517142e-05, 8.2343431131448597e-05, 0.00011522681597853079, 0.00012458392302505672, 0.00010290729551343247, 0.00014592976367566735, 0.00010768241190817207, 7.9573947004973888e-05, 5.3534149628831074e-05, 8.8970380602404475e-05, 9.1098605480510741e-05, 6.227142148418352e-05, 7.289567292900756e-05, 6.8838802690152079e-05, 7.5908334110863507e-05, 7.2644412284716964e-05, 0.00012467510532587767, 0.00019252077618148178, 6.6188986238557845e-05, 7.448234100593254e-05, 0.0001906179531943053, 0.00015974570123944432, 0.00017686495266389102, 0.00010241257405141369, } };
const TfLiteAffineQuantization quant22 = { (TfLiteFloatArray*)&quant22_scale, (TfLiteIntArray*)&g0::quant6_zero, 0 };
const MODEL_SECTION(EI_MODEL_SECTION) ALIGN(16) int8_t tensor_data23[1*3*3*48] = { 
  /* [0][0][][] */ 54,-61,-32,42,77,47,-66,-98,8,54,87,-69,-55,72,105,42,61,-76,60,76,-86,-91,43,67,-54,-23,79,70,99,106,-55,56,47,-79,-101,-86,74,-63,74,11,-90,49,37,-86,63,111,63,-53, 85,-77,-63,71,97,53,-71,-101,22,74,102,-97,-88,91,119,69,62,-92,61,95,-77,-115,69,81,-72,-62,112,94,114,127,-72,77,63,-101,-127,-99,96,-81,75,33,-115,59,34,-95,87,127,70,-75, 38,-34,-52,27,32,1,-30,-46,18,25,21,-32,-75,39,42,28,11,-16,25,22,-9,-79,26,25,-32,-10,42,32,36,45,-22,9,32,-75,-61,-50,32,-26,14,22,-34,15,2,-26,41,30,16,-49, 
  /* [0][1][][] */ 48,-90,-64,78,108,92,-119,-111,89,94,108,-87,-83,100,127,82,111,-94,57,111,-113,-127,84,113,-119,-85,107,99,93,107,-83,98,92,-111,-103,-127,94,-98,116,80,-105,110,98,-126,93,106,45,-87, 51,-127,-127,127,127,127,-127,-127,127,127,127,-127,-127,127,121,127,127,-127,66,127,-127,-113,127,127,-127,-127,127,127,127,118,-127,127,127,-127,-99,-125,127,-127,127,127,-127,127,127,-127,127,116,53,-127, -4,-69,-92,66,48,30,-67,-43,66,46,32,-61,-73,38,53,63,35,-30,23,34,-29,-86,59,67,-78,-17,18,60,61,16,-38,29,58,-109,-65,-56,42,-36,29,56,-22,61,42,-64,47,-1,17,-74, 
  /* [0][2][][] */ -40,-54,-58,48,41,43,-58,-33,-104,47,29,-61,-61,41,67,53,71,-26,-79,51,-37,-53,47,38,-83,-52,63,54,20,0,-53,30,54,-62,-23,-53,28,-39,60,80,-36,57,63,-70,37,6,-104,-29, -127,-80,-94,79,49,71,-74,-27,-80,64,53,-72,-101,51,59,80,81,-36,-127,63,-45,-87,69,36,-102,-37,52,58,34,3,-76,41,75,-110,-21,-65,37,-48,55,111,-28,51,97,-89,43,-15,-127,-55, -65,-25,-65,49,15,20,-4,-5,-95,26,27,-26,-43,19,42,44,21,-12,-69,30,-20,-12,29,23,-50,9,9,23,17,-12,-28,13,33,-40,2,-25,4,-10,6,48,-1,22,32,-20,4,-14,-54,-26, 
};
const TfArray<48, float> quant23_scale = { 48, { 0.014089475385844707, 0.0042210211977362633, 0.0042349710129201412, 0.0043746414594352245, 0.0031462204642593861, 0.0054601519368588924, 0.0050166524015367031, 0.0046009249053895473, 0.0095236022025346756, 0.0023330929689109325, 0.0065521672368049622, 0.0047316062264144421, 0.0047040213830769062, 0.0099782431498169899, 0.0037818835116922855, 0.0038572985213249922, 0.0038682613521814346, 0.0065109096467494965, 0.016699250787496567, 0.0045252712443470955, 0.0023185242898762226, 0.0037034349516034126, 0.0044646398164331913, 0.0059648081660270691, 0.0041300454176962376, 0.0044594807550311089, 0.0062403492629528046, 0.0067471032962203026, 0.0055731600150465965, 0.0079031316563487053, 0.0058317664079368114, 0.0043094935826957226, 0.002899253973737359, 0.0048183770850300789, 0.0049336357042193413, 0.0033724391832947731, 0.0039478177204728127, 0.0037281096447259188, 0.0041109747253358364, 0.0039342101663351059, 0.0067520411685109138, 0.01042636577039957, 0.0035846030805259943, 0.0040337471291422844, 0.010323313996195793, 0.008651362732052803, 0.0095784915611147881, 0.0055463672615587711, } };
const TfLiteAffineQuantization quant23 = { (TfLiteFloatArray*)&quant23_scale, (TfLiteIntArray*)&g0::quant6_zero, 3 };
const MODEL_SECTION(EI_MODEL_SECTION) ALIGN(16) int32_t tensor_data24[48] = { -3068, 10841, 7391, -1312, 102, 14051, 6090, 2560, 20783, 3034, -4296, 2644, 5442, 2844, -371, 1179, -2667, 11189, -5145, -1169, 1841, 1776, 609, -827, 122, 4741, -2482, -2373, -1084, -4791, 17358, 4126, 1047, 1473, 823, 2202, 2115, 12566, 2056, 1010, 11953, -3754, 1170, 2377, -2579, -3171, 24339, 4761, };
const TfArray<48, float> quant24_scale = { 48, { 0.00017443686374463141, 8.0151337897405028e-05, 0.00010894500155700371, 0.00017308651877101511, 0.00033475452801212668, 6.2454513681586832e-05, 0.00014296171138994396, 0.00017021158419083804, 5.0086724513676018e-05, 0.00019005071953870356, 0.00011091716442024335, 0.00019226341100875288, 0.00012206350947963074, 0.00017008821305353194, 0.0002744349476415664, 0.00015020481077954173, 0.00014640951121691614, 8.6170839495025575e-05, 9.7168238426093012e-05, 0.00025642453692853451, 0.00021213397849351168, 0.0001501164078945294, 0.00020085743744857609, 0.00015222460206132382, 0.00024091287923511118, 0.00011081729462603107, 0.00017264063353650272, 0.00013067692634649575, 0.00021148916857782751, 9.5344505098182708e-05, 6.4088300860021263e-05, 0.00016173897893168032, 0.0002179314469685778, 0.00021304482652340084, 0.00015761706163175404, 0.00016878897440619767, 0.00014403901877813041, 7.0674934249836951e-05, 0.00022271832858677953, 0.00015567529771942645, 8.414507465204224e-05, 7.2266891947947443e-05, 0.00020641650189645588, 0.00018042408919427544, 0.00020142401626799256, 0.00014641603047493845, 4.4595981307793409e-05, 0.00011133942462038249, } };
const TfLiteAffineQuantization quant24 = { (TfLiteFloatArray*)&quant24_scale, (TfLiteIntArray*)&g0::quant6_zero, 0 };
const MODEL_SECTION(EI_MODEL_SECTION) ALIGN(16) int8_t tensor_data25[48*1*1*8] = { 
  /* [0][0][][] */ 46,26,-51,8,-37,49,-127,23, 
  /* [1][0][][] */ 4,-63,-127,2,-11,-20,122,-104, 
  /* [2][0][][] */ -123,-53,-70,-46,-34,58,-127,-8, 
  /* [3][0][][] */ -57,-38,20,-11,-27,-127,-111,-20, 
  /* [4][0][][] */ -47,-127,-46,17,57,22,-38,-40, 
  /* [5][0][][] */ 84,-31,102,59,-127,67,-76,-116, 
  /* [6][0][][] */ 36,-127,-68,-32,-12,67,-44,-84, 
  /* [7][0][][] */ -27,-84,-56,-59,68,-127,-3,25, 
  /* [8][0][][] */ 38,58,47,58,33,-46,-9,127, 
  /* [9][0][][] */ -25,-60,-51,10,43,-19,127,-14, 
  /* [10][0][][] */ -29,15,-127,24,19,23,98,-109, 
  /* [11][0][][] */ 6,-36,-37,4,-127,18,3,53, 
  /* [12][0][][] */ 95,64,-16,34,-72,127,77,-14, 
  /* [13][0][][] */ -49,-4,20,-18,41,-127,-5,70, 
  /* [14][0][][] */ -98,-47,14,33,14,69,-117,-127, 
  /* [15][0][][] */ 59,79,44,3,-127,41,115,-50, 
  /* [16][0][][] */ -2,-61,0,72,-14,-66,11,-127, 
  /* [17][0][][] */ -76,127,30,-12,-59,-50,-85,-83, 
  /* [18][0][][] */ 85,127,-88,-97,95,89,-95,-69, 
  /* [19][0][][] */ -30,74,-18,13,-127,4,-71,-92, 
  /* [20][0][][] */ -127,-7,7,14,21,20,108,52, 
  /* [21][0][][] */ -34,-1,54,21,-97,-108,-127,24, 
  /* [22][0][][] */ -7,-37,-50,-6,-127,1,3,63, 
  /* [23][0][][] */ 63,3,-18,-19,127,67,-85,88, 
  /* [24][0][][] */ 127,12,-57,30,-94,5,10,-5, 
  /* [25][0][][] */ 29,-63,70,106,-47,-127,25,104, 
  /* [26][0][][] */ 22,127,6,60,77,-23,23,-19, 
  /* [27][0][][] */ -127,117,60,-22,126,-72,-3,100, 
  /* [28][0][][] */ -68,-73,-54,-33,77,-127,24,-18, 
  /* [29][0][][] */ -56,-29,49,43,127,-101,-83,71, 
  /* [30][0][][] */ 127,44,-126,-105,-83,-95,-74,-66, 
  /* [31][0][][] */ 24,2,37,61,-127,9,32,7, 
  /* [32][0][][] */ 127,14,50,41,-40,-58,93,65, 
  /* [33][0][][] */ 127,35,-46,7,-118,-67,23,54, 
  /* [34][0][][] */ 38,-12,-19,19,-43,127,22,-74, 
  /* [35][0][][] */ 119,34,-25,-41,35,-94,33,127, 
  /* [36][0][][] */ -35,-40,69,-102,-26,-15,83,-127, 
  /* [37][0][][] */ 75,-63,58,45,113,-12,39,-127, 
  /* [38][0][][] */ 68,127,12,-26,-24,22,25,75, 
  /* [39][0][][] */ 28,5,-70,68,-23,-66,-80,127, 
  /* [40][0][][] */ -17,-34,-3,-31,24,-127,20,45, 
  /* [41][0][][] */ -33,50,-127,-66,90,124,68,-110, 
  /* [42][0][][] */ 26,-43,-38,17,74,127,36,52, 
  /* [43][0][][] */ 5,43,-24,29,-127,-81,50,-56, 
  /* [44][0][][] */ -127,-52,-14,-31,51,57,-113,-73, 
  /* [45][0][][] */ -64,55,-55,20,30,-3,-70,127, 
  /* [46][0][][] */ -32,61,127,-5,-58,-54,-60,49, 
  /* [47][0][][] */ -127,-115,-40,-51,106,114,-30,87, 
};
const TfArray<48, float> quant25_scale = { 48, { 0.0028436812572181225, 0.0013066324172541499, 0.0017760285409167409, 0.0028216678183525801, 0.0054571903310716152, 0.0010181375546380877, 0.0023305711802095175, 0.002774800406768918, 0.00081651710206642747, 0.0030982194002717733, 0.0018081789603456855, 0.0031342906877398491, 0.0019898873288184404, 0.0027727892156690359, 0.0044738566502928734, 0.0024486486800014973, 0.0023867774289101362, 0.0014047627337276936, 0.0015840430278331041, 0.0041802497580647469, 0.0034582221414893866, 0.0024472074583172798, 0.0032743911724537611, 0.0024815755896270275, 0.0039273775182664394, 0.001806550775654614, 0.0028143990784883499, 0.0021303037647157907, 0.0034477103035897017, 0.0015543124172836542, 0.0010447717504575849, 0.0026366794481873512, 0.0035527327563613653, 0.0034730706829577684, 0.0025694835931062698, 0.0027516090776771307, 0.0023481335956603289, 0.0011521474225446582, 0.0036307687405496836, 0.0025378288701176643, 0.001371738500893116, 0.0011780996574088931, 0.0033650153782218695, 0.0029412852600216866, 0.0032836275640875101, 0.002386883832514286, 0.00072700664168223739, 0.0018150625983253121, } };
const TfLiteAffineQuantization quant25 = { (TfLiteFloatArray*)&quant25_scale, (TfLiteIntArray*)&g0::quant6_zero, 0 };
const MODEL_SECTION(EI_MODEL_SECTION) ALIGN(16) int32_t tensor_data26[8] = { 10857, 16215, 4876, 4245, 2600, -13674, 6514, -6377, };
const TfArray<8, float> quant26_scale = { 8, { 0.00013225193833932281, 0.00014238951553124934, 0.00015505013288930058, 0.00019630376482382417, 0.00013008584210183471, 0.00015382582205347717, 7.0356647484004498e-05, 0.00012612354476004839, } };
const TfLiteAffineQuantization quant26 = { (TfLiteFloatArray*)&quant26_scale, (TfLiteIntArray*)&g0::quant8_zero, 0 };
const MODEL_SECTION(EI_MODEL_SECTION) ALIGN(16) int8_t tensor_data27[8*1*1*48] = { 
  /* [0][0][][] */ 37,-50,103,66,27,-41,20,11,-6,55,-32,19,-47,-85,37,4,-109,62,-34,67,-44,67,0,-31,2,-44,66,-28,-26,27,-34,105,-62,-12,-36,-83,-65,-47,-38,-10,-8,59,-127,8,57,26,26,51, 
  /* [1][0][][] */ -58,-35,61,-9,-30,33,-33,-32,49,-13,-3,-34,-15,13,-1,18,3,23,13,-9,-57,-26,-75,-23,25,-40,-28,-35,26,-69,-9,-127,-5,-60,-65,-70,-39,-86,-26,23,39,-16,80,-104,-49,-18,-25,-8, 
  /* [2][0][][] */ -63,91,-9,37,13,14,23,-37,81,-47,76,87,99,17,31,-62,103,0,5,32,-16,20,10,127,-113,-47,13,-21,-3,89,-24,-87,-23,0,7,-82,-28,6,-41,-15,88,-86,26,-2,29,-121,0,-17, 
  /* [3][0][][] */ 59,-19,-61,33,84,-84,4,-120,-33,-6,-59,-87,-23,127,-13,20,-42,-18,-66,-47,35,80,-12,-53,115,47,53,-71,35,-94,53,-64,56,64,116,-76,-45,19,-32,47,27,89,-83,29,-1,29,7,40, 
  /* [4][0][][] */ -50,27,-44,70,93,-29,27,-43,-36,-7,-58,33,-42,-13,5,-60,11,59,-30,-37,-43,39,-68,-63,16,-13,23,-34,29,-34,-28,61,-8,78,-69,-72,-63,-58,-33,2,61,-51,127,18,-1,83,-52,-54, 
  /* [5][0][][] */ 53,7,81,-5,-6,19,50,32,127,-2,71,3,71,56,25,-59,-11,31,32,-42,-55,-70,14,40,20,-14,28,42,-39,-27,16,-19,-24,52,-23,55,45,-1,-31,-46,-8,69,36,42,-18,-6,73,6, 
  /* [6][0][][] */ -2,-62,-14,10,37,-9,-5,15,-50,-20,104,62,97,70,-34,50,115,-127,-18,-3,-9,-45,-100,33,-75,74,-38,0,-20,-53,68,-53,92,13,-77,-23,-44,3,56,12,80,-68,-7,-76,-105,47,-43,22, 
  /* [7][0][][] */ -16,-21,-56,-36,20,104,-4,-3,-7,-53,-127,-99,42,51,-56,-49,-33,26,105,19,-13,-76,61,-11,113,-25,-77,89,-40,-10,-27,-83,-48,67,53,114,93,-59,-22,-41,-21,-9,40,-16,-1,-26,1,-58, 
};
const TfArray<8, float> quant27_scale = { 8, { 0.0056207072921097279, 0.0060515543445944786, 0.0065896306186914444, 0.0083429096266627312, 0.0055286483839154243, 0.0065375971607863903, 0.0029901575762778521, 0.0053602508269250393, } };
const TfLiteAffineQuantization quant27 = { (TfLiteFloatArray*)&quant27_scale, (TfLiteIntArray*)&g0::quant8_zero, 0 };
const MODEL_SECTION(EI_MODEL_SECTION) ALIGN(16) int32_t tensor_data28[48] = { -1311, 1779, 1308, 43, -168, 8636, -306, -4291, -5577, -804, -6535, 167, -3609, -6353, -96, -692, -8715, 14631, -3823, -136, -905, 324, -1618, 268, 17723, 92, -443, -1417, -117, 1371, 246, -7730, -558, 13139, -425, 6933, -242, -3794, -238, -92, -3357, -604, 3798, 5587, 711, 7846, 257, -2174, };
const TfArray<48, float> quant28_scale = { 48, { 0.00031810445943847299, 0.00011197429557796568, 0.00046451916568912566, 0.00017193960957229137, 0.00019090590649284422, 0.00029563548741862178, 0.00025621970416978002, 0.00020116502128075808, 0.00032224823371507227, 0.0001628116297069937, 0.00044170886394567788, 0.00020543832215480506, 0.00014489979366771877, 0.00016791954112704843, 0.00013454236614052206, 0.00041177956154569983, 0.0002428243460599333, 9.9493074230849743e-05, 0.00013568719441536814, 0.00043254552292637527, 0.0002336304314667359, 0.00026576829259283841, 0.00021436251699924469, 0.0005638067377731204, 0.00020717868756037205, 0.00026299641467630863, 0.00018376574735157192, 0.00018058238492812961, 0.00021952718088869005, 0.00014891465252730995, 0.00034861062886193395, 0.00051487830933183432, 0.00037248319131322205, 0.00011491875193314627, 0.00042565545300021768, 0.00018943235045298934, 0.00014972893404774368, 9.2287278675939888e-05, 0.00040332323987968266, 0.00071765918983146548, 0.00023763280478306115, 0.00063026230782270432, 0.00049552047858014703, 0.00017737071902956814, 0.0001684353337623179, 0.00012275400513317436, 0.00023359306214842945, 0.00024685056996531785, } };
const TfLiteAffineQuantization quant28 = { (TfLiteFloatArray*)&quant28_scale, (TfLiteIntArray*)&g0::quant6_zero, 0 };
const MODEL_SECTION(EI_MODEL_SECTION) ALIGN(16) int8_t tensor_data29[1*3*3*48] = { 
  /* [0][0][][] */ -4,-43,39,-26,127,-5,-15,-12,-30,47,-13,9,59,19,127,-36,12,-12,-30,-18,-31,-20,-59,26,-111,47,24,-51,-13,18,-19,-4,-33,25,19,1,84,55,31,-7,61,16,-13,-1,-103,-6,-42,-34, 5,-103,-73,-26,-47,-5,32,23,18,0,64,127,-14,57,-71,127,3,-56,35,-53,-77,-127,-77,79,-127,-85,21,113,13,35,123,8,-127,-118,-47,36,127,-91,118,10,49,-10,-23,-10,-54,-11,67,4, 14,-17,-15,127,50,6,-87,-1,-23,-41,-23,-17,47,-1,-62,-43,23,25,-12,-12,-2,-2,-27,14,-50,-63,-26,34,1,27,-84,-7,17,69,17,19,2,74,-127,0,25,-4,-9,28,-127,2,-60,47, 
  /* [0][1][][] */ -107,-67,127,-8,-40,-35,77,20,18,100,7,12,44,26,100,31,29,-127,106,41,83,-10,56,-40,-5,-19,35,-55,24,48,32,53,35,-107,5,127,7,47,-44,-116,20,92,-19,-85,26,-85,-61,21, 127,-71,-72,-67,3,-127,127,127,127,21,127,-44,-127,22,-46,-41,127,-98,127,127,127,79,127,-127,-4,-24,106,-28,127,127,-127,127,32,-119,127,-106,-71,127,-103,124,-127,-127,127,-127,97,-127,127,-117, -8,-111,10,74,-24,-12,-53,12,-14,-127,-35,47,76,11,-63,45,22,-10,-9,16,-4,-25,46,-25,1,7,-127,78,-66,5,85,18,-9,-109,-16,-45,62,12,122,11,21,55,-45,5,54,-24,-57,127, 
  /* [0][2][][] */ -3,123,26,-34,72,16,-46,-13,-27,18,-7,-4,53,18,85,10,-12,-6,-6,-44,-14,9,3,11,-19,-14,30,5,-48,-121,-14,-2,-6,45,-17,33,-63,48,15,106,12,20,-2,7,18,2,-20,-36, 3,94,-48,13,25,-31,-4,35,32,14,26,-37,37,127,-82,-74,5,-37,111,-77,-47,75,2,51,68,127,4,127,-64,-120,-20,-2,96,-127,-84,0,-73,-43,-27,-127,42,-21,-56,77,46,21,18,11, 16,127,-17,28,26,8,-66,-1,-20,-18,-3,-10,54,1,-72,0,-9,-5,-33,-24,-7,4,0,-1,-43,30,-41,14,40,-87,21,0,10,48,1,-17,-49,64,13,1,-29,-4,1,-16,10,4,-3,35, 
};
const TfArray<48, float> quant29_scale = { 48, { 0.013519439846277237, 0.0047589074820280075, 0.01974206417798996, 0.0073074330575764179, 0.0081135006621479988, 0.012564508244395256, 0.01088933739811182, 0.0085495132952928543, 0.0136955501511693, 0.0069194943644106388, 0.018772626295685768, 0.0087311286479234695, 0.0061582410708069801, 0.0071365805342793465, 0.0057180505245923996, 0.017500631511211395, 0.010320034809410572, 0.0042284554801881313, 0.005766705609858036, 0.01838318444788456, 0.0099292928352952003, 0.011295151896774769, 0.0091104069724678993, 0.023961786180734634, 0.0088050942867994308, 0.011177347041666508, 0.007810044102370739, 0.0076747513376176357, 0.0093299048021435738, 0.0063288724049925804, 0.014815951697528362, 0.021882327273488045, 0.015830535441637039, 0.0048840469680726528, 0.018090356141328812, 0.0080508748069405556, 0.006363479420542717, 0.0039222091436386108, 0.017141237854957581, 0.030500514432787895, 0.010099394246935844, 0.026786146685481071, 0.021059619262814522, 0.0075382553040981293, 0.0071585015393793583, 0.0052170450799167156, 0.009927704930305481, 0.010491148568689823, } };
const TfLiteAffineQuantization quant29 = { (TfLiteFloatArray*)&quant29_scale, (TfLiteIntArray*)&g0::quant6_zero, 3 };
const MODEL_SECTION(EI_MODEL_SECTION) ALIGN(16) int32_t tensor_data30[48] = { 9330, 3167, 46524, -3122, -1662, 9913, -1171, 1366, 2929, 60, 9424, 834, 3013, 4822, 3810, 4653, 3180, 3835, -1047, 6042, 2412, 540, 1534, 15481, 42060, 6897, 6301, -1888, -158, 7409, 10517, 17716, 17383, 6279, 9442, -1521, 826, 3048, 8941, 8029, 1209, 16153, 16652, 4996, 11205, 2493, 6280, 913, };
const TfArray<48, float> quant30_scale = { 48, { 9.1141853772569448e-05, 0.0001723808964015916, 2.8052703783032484e-05, 0.00016065272211562842, 0.00024178499006666243, 0.00010575468331808224, 0.00014099750842433423, 0.00040840532165020704, 0.00020435720216482878, 0.00021889116032980382, 8.9962086349260062e-05, 0.00021922432642895728, 0.00016741383296903223, 0.00015875439567025751, 0.00015051574155222625, 0.00016290076018776745, 0.00014388740237336606, 0.00014222058234736323, 0.00023984684958122671, 0.00014335908053908497, 0.00015841817366890609, 0.00022386337514035404, 0.00017558227409608662, 6.3175633840728551e-05, 3.6845725844614208e-05, 0.0001235955860465765, 0.00012824156146962196, 0.0001881917123682797, 0.00041453680023550987, 0.00011750358680728823, 8.5054314695298672e-05, 5.5773845815565437e-05, 5.5554563004989177e-05, 0.00013624627899844199, 9.3919792561791837e-05, 0.00012672565935645252, 0.0002218761364929378, 0.00013781391317024827, 9.7261523478664458e-05, 0.00010781713353935629, 0.00015333786723203957, 6.2875136791262776e-05, 6.8532099248841405e-05, 0.0001587185834068805, 8.4203660662751645e-05, 0.00024916211259551346, 0.00012445542961359024, 0.00020753240096382797, } };
const TfLiteAffineQuantization quant30 = { (TfLiteFloatArray*)&quant30_scale, (TfLiteIntArray*)&g0::quant6_zero, 0 };
const MODEL_SECTION(EI_MODEL_SECTION) ALIGN(16) int8_t tensor_data31[48*1*1*8] = { 
  /* [0][0][][] */ -21,33,11,-127,-87,5,25,116, 
  /* [1][0][][] */ 100,10,-18,-5,-94,54,127,24, 
  /* [2][0][][] */ -7,120,-40,-27,-39,95,-52,-127, 
  /* [3][0][][] */ 64,-74,-86,120,-127,-47,-3,-23, 
  /* [4][0][][] */ 39,-62,44,-13,-127,-4,53,23, 
  /* [5][0][][] */ -18,49,-13,-89,-127,-3,-27,9, 
  /* [6][0][][] */ 49,-19,34,37,126,-23,-3,-127, 
  /* [7][0][][] */ 12,33,18,127,22,-5,-3,25, 
  /* [8][0][][] */ 23,25,15,-42,34,127,14,-27, 
  /* [9][0][][] */ 120,28,-12,17,-64,-54,127,73, 
  /* [10][0][][] */ 1,66,-70,-34,4,127,79,-57, 
  /* [11][0][][] */ -15,-39,-127,105,-63,26,-10,78, 
  /* [12][0][][] */ -101,-86,55,49,32,-127,-45,12, 
  /* [13][0][][] */ 39,30,29,50,-56,127,12,-37, 
  /* [14][0][][] */ 1,-89,11,-9,-57,-66,-127,108, 
  /* [15][0][][] */ -81,37,-2,8,95,-7,-127,-45, 
  /* [16][0][][] */ 95,77,-98,-127,58,127,109,38, 
  /* [17][0][][] */ -101,113,-127,41,-13,-22,20,-109, 
  /* [18][0][][] */ 34,-5,-95,127,-11,-34,-44,-57, 
  /* [19][0][][] */ 117,11,12,28,-44,4,127,48, 
  /* [20][0][][] */ 37,-73,-91,127,44,-28,-24,-62, 
  /* [21][0][][] */ 19,51,127,-106,40,-32,32,-106, 
  /* [22][0][][] */ -76,-36,-127,60,-32,30,6,112, 
  /* [23][0][][] */ 75,30,28,37,-127,116,61,-46, 
  /* [24][0][][] */ -10,-2,-127,84,-35,31,45,69, 
  /* [25][0][][] */ 44,-34,-75,127,45,-2,-31,-15, 
  /* [26][0][][] */ -87,29,127,-102,-21,35,69,-7, 
  /* [27][0][][] */ -72,81,127,4,16,-12,78,22, 
  /* [28][0][][] */ -52,-99,42,-127,-21,7,1,-29, 
  /* [29][0][][] */ -84,-74,-26,87,-3,-127,-15,64, 
  /* [30][0][][] */ -127,53,117,-32,42,42,62,27, 
  /* [31][0][][] */ -61,52,83,-127,-46,17,36,64, 
  /* [32][0][][] */ -80,88,88,-100,4,5,14,127, 
  /* [33][0][][] */ 7,109,-46,47,26,18,-127,-30, 
  /* [34][0][][] */ 90,10,127,-109,-81,-102,37,-47, 
  /* [35][0][][] */ 88,-9,26,109,75,-70,29,-127, 
  /* [36][0][][] */ 22,64,127,-111,24,-21,40,-113, 
  /* [37][0][][] */ -60,-50,98,70,-4,-127,100,-7, 
  /* [38][0][][] */ 74,0,78,34,-28,-52,127,17, 
  /* [39][0][][] */ 52,-80,-22,14,-127,4,77,60, 
  /* [40][0][][] */ -44,40,-127,102,-45,54,-79,117, 
  /* [41][0][][] */ -109,-18,-46,3,127,16,-93,16, 
  /* [42][0][][] */ -78,62,-21,-28,127,35,-113,-49, 
  /* [43][0][][] */ 127,105,-33,116,3,-98,52,62, 
  /* [44][0][][] */ -6,21,92,1,44,-127,18,-32, 
  /* [45][0][][] */ -8,-73,127,75,-29,-15,-117,16, 
  /* [46][0][][] */ 41,-114,-127,51,-78,30,-4,-19, 
  /* [47][0][][] */ -113,-24,44,-12,77,40,-127,-32, 
};
const TfArray<48, float> quant31_scale = { 48, { 0.0023058061487972736, 0.0043610800057649612, 0.00070970790693536401, 0.0040643680840730667, 0.0061169406399130821, 0.0026754974387586117, 0.0035671088844537735, 0.010332283563911915, 0.0051700514741241932, 0.0055377474054694176, 0.0022759591229259968, 0.005546176340430975, 0.0042354180477559566, 0.004016342107206583, 0.0038079116493463516, 0.0041212411597371101, 0.0036402205005288124, 0.0035980513785034418, 0.0060679074376821518, 0.0036268546245992184, 0.0040078358724713326, 0.0056635402143001556, 0.004442072007805109, 0.0015982860932126641, 0.00093216344248503447, 0.0031268561724573374, 0.0032443951349705458, 0.0047610793262720108, 0.010487404651939869, 0.0029727339278906584, 0.0021517968270927668, 0.0014110276242718101, 0.0014054799685254693, 0.0034469072706997395, 0.0023760853800922632, 0.0032060439698398113, 0.0056132646277546883, 0.003486566711217165, 0.0024606282822787762, 0.0027276754844933748, 0.0038793089333921671, 0.0015906838234513998, 0.0017337999306619167, 0.0040154359303414822, 0.0021302760578691959, 0.0063035753555595875, 0.0031486093066632748, 0.0052503813058137894, } };
const TfLiteAffineQuantization quant31 = { (TfLiteFloatArray*)&quant31_scale, (TfLiteIntArray*)&g0::quant6_zero, 0 };
const MODEL_SECTION(EI_MODEL_SECTION) ALIGN(16) int32_t tensor_data32[8] = { -12643, 1680, -16733, 954, 2278, -3883, 11828, 202, };
const TfArray<8, float> quant32_scale = { 8, { 0.00012773914204444736, 0.00011417702626204118, 9.2877446149941534e-05, 6.5944375819526613e-05, 0.00016914306615944952, 0.00012893626990262419, 0.00011879329395014793, 0.00013394268171396106, } };
const TfLiteAffineQuantization quant32 = { (TfLiteFloatArray*)&quant32_scale, (TfLiteIntArray*)&g0::quant8_zero, 0 };
const MODEL_SECTION(EI_MODEL_SECTION) ALIGN(16) int8_t tensor_data33[8*1*1*48] = { 
  /* [0][0][][] */ 47,107,-38,69,-4,-6,-24,11,62,-62,4,-27,10,8,-32,-50,3,-21,30,15,-55,-30,-34,6,15,16,24,-4,18,13,-21,28,-62,10,112,-127,-23,23,-14,115,-29,12,13,-1,-11,38,26,-43, 
  /* [1][0][][] */ 3,-45,34,54,-13,-13,-18,-21,46,-44,92,44,20,11,-47,-79,127,41,16,8,-70,32,36,-14,-50,-94,-32,-48,-13,-61,41,-42,-8,-23,-28,11,3,-19,81,-49,-15,31,-57,35,75,61,17,47, 
  /* [2][0][][] */ 77,-28,-11,-17,107,106,60,75,-30,-6,-1,-31,-5,46,60,31,-23,-36,57,-65,-40,-48,-46,58,-94,-95,113,21,62,-64,-62,18,-127,83,105,21,-7,-5,-3,15,23,70,15,-63,-18,21,56,-46, 
  /* [3][0][][] */ 79,-31,13,-11,120,127,27,46,-35,-27,33,54,-126,41,73,24,8,8,76,-110,-91,18,35,88,12,-34,57,25,48,-54,5,-9,-120,61,-67,-123,23,-39,62,-49,57,-97,-113,-28,-62,40,-17,61, 
  /* [4][0][][] */ 36,42,-27,-40,-10,-9,-20,-16,5,-4,-9,-13,-33,-22,61,50,-41,-17,-32,43,28,-14,-14,6,-49,-39,-4,55,-11,11,-22,28,-31,-15,27,-127,-8,25,13,54,5,-12,-11,-23,43,3,87,-21, 
  /* [5][0][][] */ 65,56,-89,48,8,5,-9,30,-81,-57,-58,-21,34,20,44,26,38,-62,43,127,-69,-47,-56,50,31,-22,-36,65,33,33,-56,4,-5,0,-58,0,-8,19,-22,67,17,77,-8,-42,121,30,14,-60, 
  /* [6][0][][] */ -29,-71,19,-44,-43,-38,-79,-74,-35,-63,-114,43,-54,-51,94,87,-127,8,21,-21,16,57,68,9,-8,-7,-70,86,-80,-35,44,74,15,-54,84,40,24,46,-11,-84,-11,-60,-30,18,-44,-21,-12,64, 
  /* [7][0][][] */ 73,17,-17,39,14,14,9,3,82,-6,-10,-19,56,5,-10,-22,-51,-5,-29,0,3,-19,-22,-26,70,-127,18,-3,0,97,-18,20,-75,22,-58,-47,-15,27,25,23,25,67,-37,-16,-41,30,39,-26, 
};
const TfArray<8, float> quant33_scale = { 8, { 0.0054289135150611401, 0.0048525235615670681, 0.0039472915232181549, 0.0028026357758790255, 0.0071885804645717144, 0.0054797916673123837, 0.0050487150438129902, 0.0056925639510154724, } };
const TfLiteAffineQuantization quant33 = { (TfLiteFloatArray*)&quant33_scale, (TfLiteIntArray*)&g0::quant8_zero, 0 };
const MODEL_SECTION(EI_MODEL_SECTION) ALIGN(16) int32_t tensor_data34[48] = { -445, 9127, 256, -528, 143, 1018, 7818, 7736, -767, -7765, -431, 212, 6876, 4928, 20659, 18733, -738, -2318, 1597, 6702, 18009, -846, -136, 56, 4305, -175, 3093, 20077, 6879, 14359, 241, 1945, -880, -3961, 1937, -771, -165, -84, -197, 4620, 3488, 5324, -5918, 880, 3232, -686, 11717, 373, };
const TfArray<48, float> quant34_scale = { 48, { 0.00010615105566103011, 0.00014483518316410482, 0.00052838755073025823, 7.2428207204211503e-05, 0.00046698166988790035, 0.00055141752818599343, 0.00017169440980069339, 0.00018061422451864928, 7.0534726546611637e-05, 0.00018965764320455492, 0.0004398251767270267, 0.00025321607245132327, 0.00020273198606446385, 0.0001756017591105774, 7.1211150498129427e-05, 6.022952584316954e-05, 0.00011671245738398284, 0.00038315186975523829, 6.543326162500307e-05, 8.613301906734705e-05, 6.5761720179580152e-05, 0.00077941216295585036, 0.0012100430903956294, 0.00022634118795394897, 5.7725988881429657e-05, 0.00011902707774424925, 9.702520037535578e-05, 0.00012091769895050675, 0.0001649059122428298, 8.0155092291533947e-05, 0.00041303443140350282, 0.00025916038430295885, 7.2749411629047245e-05, 0.00021562351321335882, 6.4905259932857007e-05, 8.4131199400871992e-05, 0.00027880971902050078, 0.00034694399801082909, 0.00011754637671401724, 0.00020503204723354429, 8.9852939709089696e-05, 0.00022111294674687088, 9.0781722974497825e-05, 0.00032244733301922679, 8.1526442954782397e-05, 0.00025241172988899052, 9.5402909209951758e-05, 0.00066562095889821649, } };
const TfLiteAffineQuantization quant34 = { (TfLiteFloatArray*)&quant34_scale, (TfLiteIntArray*)&g0::quant6_zero, 0 };
const MODEL_SECTION(EI_MODEL_SECTION) ALIGN(16) int8_t tensor_data35[1*3*3*48] = { 
  /* [0][0][][] */ -18,-86,-107,67,-86,3,-89,-74,66,73,115,-45,-1,7,-82,-60,92,-79,31,-48,-13,-99,-38,-80,95,93,7,-112,7,-53,57,78,46,68,72,17,88,77,31,13,-114,-17,20,42,-48,50,-24,-96, 85,-6,34,73,-127,41,-62,9,110,123,119,63,-11,-73,-127,-102,119,-33,96,-81,-107,127,127,28,127,89,51,-115,-78,-54,-108,105,96,127,107,101,-17,85,59,-69,-79,-82,8,-58,-65,105,-36,97, 102,-5,62,60,-80,11,-26,-11,29,87,1,-32,-71,-1,-32,-42,38,84,49,-11,-56,-21,-85,67,46,18,26,-48,-3,-36,24,43,46,93,12,63,-2,19,47,-9,-49,-4,-2,8,-23,44,-4,-6, 
  /* [0][1][][] */ 46,-127,119,91,90,-72,-127,-127,112,77,119,-49,2,-4,-101,-93,93,127,45,-104,-35,111,30,-127,97,126,111,-120,-2,-123,-78,92,110,-2,99,50,31,108,57,3,-10,-27,100,94,-110,97,-111,105, 127,-8,1,127,122,-127,-109,3,127,127,127,63,-32,-127,-113,-127,127,63,127,-127,-127,-114,-111,44,103,127,127,-127,-127,-124,127,127,127,4,127,127,-5,127,127,-127,13,-127,127,-89,-127,127,-123,-127, 99,-8,-127,76,85,-60,-44,-11,18,75,5,-16,-127,-2,-22,-27,45,-92,67,-38,-68,11,73,66,54,39,-4,-55,-14,-87,-40,33,44,-2,28,74,3,23,71,-5,-17,-6,44,-14,-67,49,-45,9, 
  /* [0][2][][] */ 62,-77,9,19,-3,63,-80,-82,42,7,32,59,7,5,-41,-30,17,-36,18,-65,-13,3,16,-81,31,42,72,-21,8,-121,15,22,71,-82,66,21,-127,24,5,0,26,-7,94,-127,-81,49,-81,-10, 44,5,8,54,6,89,-39,-1,30,56,24,-127,-16,-88,-35,-39,39,-10,49,-94,-32,-9,-26,24,32,55,73,-50,-81,-127,-26,20,70,-85,63,32,23,44,59,-48,127,-63,127,108,-117,43,-127,17, -32,-11,-3,39,-22,37,-19,-5,12,28,-44,46,-61,-3,-5,0,6,26,24,-7,-31,24,18,28,30,23,19,-8,-6,-64,15,-9,6,-43,16,22,11,-17,40,8,66,5,25,-9,-31,14,-28,-4, 
};
const TfArray<48, float> quant35_scale = { 48, { 0.0045114196836948395, 0.0061554950661957264, 0.022456470876932144, 0.0030781987588852644, 0.019846720620989799, 0.023435244336724281, 0.007297012023627758, 0.007676104549318552, 0.0029977259691804647, 0.0080604497343301773, 0.018692569807171822, 0.010761682875454426, 0.0086161093786358833, 0.0074630747549235821, 0.0030264738015830517, 0.0025597547646611929, 0.0049602794460952282, 0.016283953562378883, 0.002780913608148694, 0.0036606532521545887, 0.0027948732022196054, 0.033125016838312149, 0.051426831632852554, 0.0096195004880428314, 0.0024533544201403856, 0.0050586508587002754, 0.0041235708631575108, 0.0051390021108090878, 0.0070085013285279274, 0.0034065914805978537, 0.017553962767124176, 0.011014316231012344, 0.0030918500851839781, 0.0091639989987015724, 0.0027584733907133341, 0.0035755760036408901, 0.011849412694573402, 0.014745119959115982, 0.0049957209266722202, 0.0087138619273900986, 0.0038187499158084393, 0.0093972999602556229, 0.0038582230918109417, 0.013704011216759682, 0.003464873880147934, 0.010727498680353165, 0.004054623655974865, 0.028288889676332474, } };
const TfLiteAffineQuantization quant35 = { (TfLiteFloatArray*)&quant35_scale, (TfLiteIntArray*)&g0::quant6_zero, 3 };
const MODEL_SECTION(EI_MODEL_SECTION) ALIGN(16) int32_t tensor_data36[48] = { 14720, 6517, 15787, 2771, 5418, 6111, -5642, 5893, 3664, -3667, -3888, 6701, -4354, -6401, 10891, 2221, -2776, 2442, -2605, 4275, 12, 6058, 2179, -3597, -630, -6650, 3775, -4693, 5203, 10638, 72, 231, 10165, 14858, 11684, 6339, 7672, -6128, 1316, 6279, -1050, -5965, 5593, 1890, 409, -8523, -15755, 2771, };
const TfArray<48, float> quant36_scale = { 48, { 0.00028653064509853721, 0.00040298671228811145, 6.9690693635493517e-05, 0.00067685113754123449, 0.00036112047382630408, 0.00029511339380405843, 0.001484366599470377, 0.00086403934983536601, 0.00083242106484249234, 0.00041333961416967213, 0.00011273565905867144, 0.00039922245196066797, 0.00034005171619355679, 0.00076244323281571269, 0.00042321596993133426, 0.0014192714588716626, 0.00086009979713708162, 0.000266620161710307, 0.00079699786147102714, 0.0011593896197155118, 0.00055405421881005168, 0.00029879430076107383, 8.7199601694010198e-05, 0.00033675285521894693, 0.00090244913008064032, 0.00060177483828738332, 0.00064529018709436059, 0.00033319203066639602, 0.0007324503967538476, 0.0004988993750885129, 0.00021453959925565869, 0.00038148628664202988, 0.00052632135339081287, 0.00018849021580535918, 0.00027141568716615438, 0.00025364125031046569, 0.00035960806417278945, 0.0012884456664323807, 0.00037991060526110232, 0.00042361777741461992, 0.00095722248079255223, 0.00045028282329440117, 0.00062270043417811394, 0.00017701048636808991, 0.0010513574816286564, 0.00055899494327604771, 0.00042951692012138665, 0.0003492581017781049, } };
const TfLiteAffineQuantization quant36 = { (TfLiteFloatArray*)&quant36_scale, (TfLiteIntArray*)&g0::quant6_zero, 0 };
const MODEL_SECTION(EI_MODEL_SECTION) ALIGN(16) int8_t tensor_data37[48*1*1*8] = { 
  /* [0][0][][] */ -99,-100,22,-127,-57,-4,-2,1, 
  /* [1][0][][] */ -127,-17,99,1,-52,23,1,18, 
  /* [2][0][][] */ 22,-13,19,127,25,-22,-15,-5, 
  /* [3][0][][] */ -103,-69,-28,-13,39,127,-41,-32, 
  /* [4][0][][] */ -7,-31,-7,0,-11,8,-127,-68, 
  /* [5][0][][] */ -3,-35,-14,-1,-11,9,-127,-69, 
  /* [6][0][][] */ 127,7,15,-10,-65,19,1,-5, 
  /* [7][0][][] */ -127,-31,-16,6,71,11,-3,9, 
  /* [8][0][][] */ 23,43,-14,-13,-29,-127,41,18, 
  /* [9][0][][] */ 73,22,-14,-6,-25,-1,-10,127, 
  /* [10][0][][] */ 114,-12,-121,6,-89,-9,42,127, 
  /* [11][0][][] */ -127,95,3,-34,76,-63,3,27, 
  /* [12][0][][] */ 127,-34,-102,12,53,-6,-8,-22, 
  /* [13][0][][] */ 127,12,12,-13,-27,25,6,-13, 
  /* [14][0][][] */ -123,-88,93,-31,76,-13,-42,-127, 
  /* [15][0][][] */ 33,75,-1,-6,-9,-127,-17,9, 
  /* [16][0][][] */ -11,-64,10,3,11,127,12,6, 
  /* [17][0][][] */ 29,-121,-69,-3,-36,127,-58,-15, 
  /* [18][0][][] */ 40,-17,-13,-15,-18,29,127,-16, 
  /* [19][0][][] */ -4,22,-3,-127,-11,35,-3,-9, 
  /* [20][0][][] */ -78,-32,74,12,58,106,-3,-127, 
  /* [21][0][][] */ -21,-8,33,-22,-20,13,-127,-80, 
  /* [22][0][][] */ 76,-12,10,127,-15,-15,56,41, 
  /* [23][0][][] */ 127,-11,-122,-7,27,-23,10,6, 
  /* [24][0][][] */ -32,23,25,35,11,4,-127,-84, 
  /* [25][0][][] */ 127,12,-84,9,15,-6,5,24, 
  /* [26][0][][] */ -1,51,-33,-127,-29,24,1,0, 
  /* [27][0][][] */ 127,14,-110,-7,-103,42,23,79, 
  /* [28][0][][] */ -127,-24,-22,19,56,10,-4,34, 
  /* [29][0][][] */ -9,-127,-13,-127,-11,25,-15,-22, 
  /* [30][0][][] */ 0,97,127,39,38,-100,118,33, 
  /* [31][0][][] */ -77,-2,-127,49,-1,-20,92,103, 
  /* [32][0][][] */ -4,-120,2,-127,-11,11,-11,-19, 
  /* [33][0][][] */ 14,-123,-4,-127,10,11,8,-28, 
  /* [34][0][][] */ -28,-52,35,-95,37,-57,127,79, 
  /* [35][0][][] */ -127,9,52,5,-112,-22,24,95, 
  /* [36][0][][] */ -127,10,119,-5,-41,19,-36,35, 
  /* [37][0][][] */ 127,13,-5,-7,-73,19,2,15, 
  /* [38][0][][] */ -76,-1,86,37,64,-55,47,127, 
  /* [39][0][][] */ -127,-5,74,0,-71,14,-11,5, 
  /* [40][0][][] */ -5,28,47,-14,26,-9,127,45, 
  /* [41][0][][] */ 127,-15,-74,4,51,13,5,-6, 
  /* [42][0][][] */ -16,-127,33,-8,16,5,-5,-20, 
  /* [43][0][][] */ 5,122,127,-6,52,-100,80,6, 
  /* [44][0][][] */ 6,-15,-3,119,-1,-127,-4,5, 
  /* [45][0][][] */ 127,-33,33,-9,-64,108,8,4, 
  /* [46][0][][] */ 15,121,-18,101,0,127,22,39, 
  /* [47][0][][] */ -15,39,11,-25,26,-35,127,73, 
};
const TfArray<48, float> quant37_scale = { 48, { 0.00492873415350914, 0.0069319438189268112, 0.001198778860270977, 0.011642800644040108, 0.0062117851339280605, 0.0050763692706823349, 0.025533214211463928, 0.014862704090774059, 0.014318824745714664, 0.0071100285276770592, 0.0019392134854570031, 0.0068671931512653828, 0.0058493725955486298, 0.013115106150507927, 0.0072799157351255417, 0.024413485080003738, 0.014794938266277313, 0.0045862453989684582, 0.013709494844079018, 0.019943147897720337, 0.0095305191352963448, 0.0051396861672401428, 0.0014999569393694401, 0.005792627576738596, 0.015523406676948071, 0.010351382195949554, 0.011099907569587231, 0.0057313758879899979, 0.012599186971783638, 0.0085817780345678329, 0.0036903857253491879, 0.0065621058456599712, 0.0090534742921590805, 0.0032422994263470173, 0.004668735433369875, 0.0043629896827042103, 0.0061857695691287518, 0.022163094952702522, 0.0065350020304322243, 0.0072868275456130505, 0.016465585678815842, 0.0077455039136111736, 0.010711331851780415, 0.0030448317993432283, 0.018084840849041939, 0.0096155069768428802, 0.0073883011937141418, 0.006007735151797533, } };
const TfLiteAffineQuantization quant37 = { (TfLiteFloatArray*)&quant37_scale, (TfLiteIntArray*)&g0::quant6_zero, 0 };
const MODEL_SECTION(EI_MODEL_SECTION) ALIGN(16) int32_t tensor_data38[8] = { 4665, -5577, -215, 3944, 2201, 727, -3629, 3440, };
const TfArray<8, float> quant38_scale = { 8, { 7.2821610956452787e-05, 0.00013580881932284683, 8.8860331743489951e-05, 6.0747017414541915e-05, 0.00012197728210594505, 0.00017403754463884979, 0.00010250110790366307, 0.0001776454591890797, } };
const TfLiteAffineQuantization quant38 = { (TfLiteFloatArray*)&quant38_scale, (TfLiteIntArray*)&g0::quant8_zero, 0 };
const MODEL_SECTION(EI_MODEL_SECTION) ALIGN(16) int8_t tensor_data39[8*1*1*8] = { 
  /* [0][0][][] */ -23,-2,-45,-34,-18,38,-127,-10, 
  /* [1][0][][] */ 18,93,-3,127,8,-10,-10,-35, 
  /* [2][0][][] */ 127,-6,-34,-59,-71,45,98,-52, 
  /* [3][0][][] */ 12,-127,41,-78,17,-85,25,55, 
  /* [4][0][][] */ 127,-4,-62,-9,29,-3,-126,-47, 
  /* [5][0][][] */ 2,-35,4,38,2,-127,-1,9, 
  /* [6][0][][] */ 127,-23,113,-1,106,-30,-2,7, 
  /* [7][0][][] */ -127,-2,-94,-5,-100,6,35,6, 
};
const TfArray<4, int> tensor_dimension39 = { 4, { 8,1,1,8 } };
const TfArray<8, float> quant39_scale = { 8, { 0.0032261607702821493, 0.0060166358016431332, 0.0039367121644318104, 0.0026912293396890163, 0.005403867457062006, 0.0077102542854845524, 0.0045410292223095894, 0.0078700929880142212, } };
const TfLiteAffineQuantization quant39 = { (TfLiteFloatArray*)&quant39_scale, (TfLiteIntArray*)&g0::quant8_zero, 0 };
const MODEL_SECTION(EI_MODEL_SECTION) ALIGN(16) int32_t tensor_data40[8] = { -10730, 10634, 830, -12836, -536, -13781, 387, 126, };
const TfArray<8, float> quant40_scale = { 8, { 0.0003121946647297591, 0.00039160711457952857, 0.00020412684534676373, 0.00030717553454451263, 0.00038513928302563727, 0.0003044665209017694, 0.0011062530102208257, 0.0025980542413890362, } };
const TfLiteAffineQuantization quant40 = { (TfLiteFloatArray*)&quant40_scale, (TfLiteIntArray*)&g0::quant8_zero, 0 };
const MODEL_SECTION(EI_MODEL_SECTION) ALIGN(16) int8_t tensor_data41[1*3*3*8] = { 
  /* [0][0][][] */ -2,1,13,18,9,0,8,30, 7,2,-41,127,-23,0,-5,26, -3,1,-9,19,-3,2,-7,22, 
  /* [0][1][][] */ -5,-2,127,-23,127,-1,-113,38, 127,-127,-109,5,-90,127,-15,-127, -26,4,16,-20,0,1,127,36, 
  /* [0][2][][] */ 1,2,7,6,10,-1,15,31, 4,5,-48,-1,-13,4,-10,-104, -4,1,-9,2,-1,0,-6,36, 
};
const TfArray<4, int> tensor_dimension41 = { 4, { 1,3,3,8 } };
const TfArray<8, float> quant41_scale = { 8, { 0.013268273323774338, 0.016643302515149117, 0.0086753908544778824, 0.013054960407316685, 0.01636841893196106, 0.012939826585352421, 0.047015752643346786, 0.11041729897260666, } };
const TfLiteAffineQuantization quant41 = { (TfLiteFloatArray*)&quant41_scale, (TfLiteIntArray*)&g0::quant8_zero, 3 };
const MODEL_SECTION(EI_MODEL_SECTION) ALIGN(16) int32_t tensor_data42[8] = { 12978, 11917, -917, 33047, 3354, 8772, 86727, 851, };
const TfArray<8, float> quant42_scale = { 8, { 0.0001988844305742532, 0.00018126268696505576, 0.00013035518350079656, 7.9609009844716638e-05, 0.00021174091671127826, 0.00028337247204035521, 1.1229893971176352e-05, 3.4450455132173374e-05, } };
const TfLiteAffineQuantization quant42 = { (TfLiteFloatArray*)&quant42_scale, (TfLiteIntArray*)&g0::quant8_zero, 0 };
const MODEL_SECTION(EI_MODEL_SECTION) ALIGN(16) int8_t tensor_data43[8*3*3*1] = { 
  /* [0][0][][] */ -57, 50, 8, 
  /* [0][1][][] */ -127, 120, -1, 
  /* [0][2][][] */ -43, 46, -1, 
  /* [1][0][][] */ 57, 127, 35, 
  /* [1][1][][] */ -68, -79, -43, 
  /* [1][2][][] */ 8, -41, 6, 
  /* [2][0][][] */ 32, 29, -46, 
  /* [2][1][][] */ 53, 70, -127, 
  /* [2][2][][] */ 22, 33, -58, 
  /* [3][0][][] */ 43, 54, 21, 
  /* [3][1][][] */ 54, 75, 27, 
  /* [3][2][][] */ -80, -127, -57, 
  /* [4][0][][] */ 4, -53, 47, 
  /* [4][1][][] */ 16, -127, 112, 
  /* [4][2][][] */ 4, -37, 31, 
  /* [5][0][][] */ 2, -57, 0, 
  /* [5][1][][] */ -1, 127, 2, 
  /* [5][2][][] */ 1, -76, 0, 
  /* [6][0][][] */ -13, -80, -2, 
  /* [6][1][][] */ -26, -127, -7, 
  /* [6][2][][] */ -14, -54, 5, 
  /* [7][0][][] */ 46, -127, 33, 
  /* [7][1][][] */ -18, -2, -10, 
  /* [7][2][][] */ -23, 77, -10, 
};
const TfArray<4, int> tensor_dimension43 = { 4, { 8,3,3,1 } };
const TfArray<8, float> quant43_scale = { 8, { 0.050715528428554535, 0.046221982687711716, 0.033240571618080139, 0.020300297066569328, 0.053993929177522659, 0.072259977459907532, 0.0028636227361857891, 0.0087848659604787827, } };
const TfLiteAffineQuantization quant43 = { (TfLiteFloatArray*)&quant43_scale, (TfLiteIntArray*)&g0::quant8_zero, 0 };
const TfArray<4, int> tensor_dimension44 = { 4, { 1,24,24,8 } };
const TfArray<1, float> quant44_scale = { 1, { 0.023529412224888802, } };
const TfLiteAffineQuantization quant44 = { (TfLiteFloatArray*)&quant44_scale, (TfLiteIntArray*)&g0::quant0_zero, 0 };
const TfArray<1, float> quant45_scale = { 1, { 0.022572219371795654, } };
const TfLiteAffineQuantization quant45 = { (TfLiteFloatArray*)&quant45_scale, (TfLiteIntArray*)&g0::quant0_zero, 0 };
const TfArray<1, float> quant46_scale = { 1, { 0.040540102869272232, } };
const TfArray<1, int> quant46_zero = { 1, { 30 } };
const TfLiteAffineQuantization quant46 = { (TfLiteFloatArray*)&quant46_scale, (TfLiteIntArray*)&quant46_zero, 0 };
const TfArray<1, float> quant47_scale = { 1, { 0.058134734630584717, } };
const TfArray<1, int> quant47_zero = { 1, { -17 } };
const TfLiteAffineQuantization quant47 = { (TfLiteFloatArray*)&quant47_scale, (TfLiteIntArray*)&quant47_zero, 0 };
const TfArray<4, int> tensor_dimension48 = { 4, { 1,24,24,48 } };
const TfArray<4, int> tensor_dimension49 = { 4, { 1,25,25,48 } };
const TfArray<4, int> tensor_dimension50 = { 4, { 1,12,12,48 } };
const TfArray<4, int> tensor_dimension51 = { 4, { 1,12,12,8 } };
const TfArray<1, float> quant51_scale = { 1, { 0.039527110755443573, } };
const TfArray<1, int> quant51_zero = { 1, { -5 } };
const TfLiteAffineQuantization quant51 = { (TfLiteFloatArray*)&quant51_scale, (TfLiteIntArray*)&quant51_zero, 0 };
const TfArray<1, float> quant54_scale = { 1, { 0.062364231795072556, } };
const TfArray<1, int> quant54_zero = { 1, { 0 } };
const TfLiteAffineQuantization quant54 = { (TfLiteFloatArray*)&quant54_scale, (TfLiteIntArray*)&quant54_zero, 0 };
const TfArray<1, float> quant55_scale = { 1, { 0.061341919004917145, } };
const TfLiteAffineQuantization quant55 = { (TfLiteFloatArray*)&quant55_scale, (TfLiteIntArray*)&g0::quant51_zero, 0 };
const TfArray<1, float> quant56_scale = { 1, { 0.018464801833033562, } };
const TfLiteAffineQuantization quant56 = { (TfLiteFloatArray*)&quant56_scale, (TfLiteIntArray*)&g0::quant0_zero, 0 };
const TfArray<4, int> tensor_dimension57 = { 4, { 1,13,13,48 } };
const TfArray<4, int> tensor_dimension58 = { 4, { 1,6,6,48 } };
const TfArray<1, float> quant58_scale = { 1, { 0.018957663327455521, } };
const TfLiteAffineQuantization quant58 = { (TfLiteFloatArray*)&quant58_scale, (TfLiteIntArray*)&g0::quant0_zero, 0 };
const TfArray<4, int> tensor_dimension59 = { 4, { 1,6,6,8 } };
const TfArray<1, float> quant59_scale = { 1, { 0.038323473185300827, } };
const TfLiteAffineQuantization quant59 = { (TfLiteFloatArray*)&quant59_scale, (TfLiteIntArray*)&g0::quant54_zero, 0 };
const TfArray<1, float> quant60_scale = { 1, { 0.014160599559545517, } };
const TfLiteAffineQuantization quant60 = { (TfLiteFloatArray*)&quant60_scale, (TfLiteIntArray*)&g0::quant0_zero, 0 };
const TfArray<1, float> quant61_scale = { 1, { 0.018620196729898453, } };
const TfLiteAffineQuantization quant61 = { (TfLiteFloatArray*)&quant61_scale, (TfLiteIntArray*)&g0::quant0_zero, 0 };
const TfArray<1, float> quant62_scale = { 1, { 0.030627291649580002, } };
const TfArray<1, int> quant62_zero = { 1, { -44 } };
const TfLiteAffineQuantization quant62 = { (TfLiteFloatArray*)&quant62_scale, (TfLiteIntArray*)&quant62_zero, 0 };
const TfArray<1, float> quant63_scale = { 1, { 0.0480368472635746, } };
const TfArray<1, int> quant63_zero = { 1, { 3 } };
const TfLiteAffineQuantization quant63 = { (TfLiteFloatArray*)&quant63_scale, (TfLiteIntArray*)&quant63_zero, 0 };
const TfArray<1, float> quant64_scale = { 1, { 0.014544735662639141, } };
const TfLiteAffineQuantization quant64 = { (TfLiteFloatArray*)&quant64_scale, (TfLiteIntArray*)&g0::quant0_zero, 0 };
const TfArray<1, float> quant65_scale = { 1, { 0.01374046690762043, } };
const TfLiteAffineQuantization quant65 = { (TfLiteFloatArray*)&quant65_scale, (TfLiteIntArray*)&g0::quant0_zero, 0 };
const TfArray<1, float> quant66_scale = { 1, { 0.035273373126983643, } };
const TfArray<1, int> quant66_zero = { 1, { 6 } };
const TfLiteAffineQuantization quant66 = { (TfLiteFloatArray*)&quant66_scale, (TfLiteIntArray*)&quant66_zero, 0 };
const TfArray<1, float> quant67_scale = { 1, { 0.052917644381523132, } };
const TfArray<1, int> quant67_zero = { 1, { 7 } };
const TfLiteAffineQuantization quant67 = { (TfLiteFloatArray*)&quant67_scale, (TfLiteIntArray*)&quant67_zero, 0 };
const TfArray<1, float> quant68_scale = { 1, { 0.017744330689311028, } };
const TfLiteAffineQuantization quant68 = { (TfLiteFloatArray*)&quant68_scale, (TfLiteIntArray*)&g0::quant0_zero, 0 };
const TfArray<4, int> tensor_dimension69 = { 4, { 1,6,6,32 } };
const TfArray<1, float> quant69_scale = { 1, { 0.017001431435346603, } };
const TfLiteAffineQuantization quant69 = { (TfLiteFloatArray*)&quant69_scale, (TfLiteIntArray*)&g0::quant0_zero, 0 };
const TfArray<4, int> tensor_dimension70 = { 4, { 1,6,6,2 } };
const TfArray<1, float> quant70_scale = { 1, { 0.032012436538934708, } };
const TfArray<1, int> quant70_zero = { 1, { -54 } };
const TfLiteAffineQuantization quant70 = { (TfLiteFloatArray*)&quant70_scale, (TfLiteIntArray*)&quant70_zero, 0 };
const TfArray<1, float> quant71_scale = { 1, { 0.00390625, } };
const TfLiteAffineQuantization quant71 = { (TfLiteFloatArray*)&quant71_scale, (TfLiteIntArray*)&g0::quant0_zero, 0 };
const TfLiteConvParams opdata0 = { kTfLitePaddingSame, 2,2, kTfLiteActRelu6, 1,1 };
const TfArray<3, int> inputs0 = { 3, { 0,43,42 } };
const TfArray<1, int> outputs0 = { 1, { 44 } };
const TfLiteDepthwiseConvParams opdata1 = { kTfLitePaddingSame, 1,1, 1, kTfLiteActRelu6, 1,1 };
const TfArray<3, int> inputs1 = { 3, { 44,41,40 } };
const TfArray<1, int> outputs1 = { 1, { 45 } };
const TfLiteConvParams opdata2 = { kTfLitePaddingSame, 1,1, kTfLiteActNone, 1,1 };
const TfArray<3, int> inputs2 = { 3, { 45,39,38 } };
const TfArray<1, int> outputs2 = { 1, { 46 } };
const TfLiteAddParams opdata3 = { kTfLiteActNone };
const TfArray<2, int> inputs3 = { 2, { 44,46 } };
const TfArray<1, int> outputs3 = { 1, { 47 } };
const TfLiteConvParams opdata4 = { kTfLitePaddingSame, 1,1, kTfLiteActRelu6, 1,1 };
const TfArray<3, int> inputs4 = { 3, { 47,37,36 } };
const TfArray<1, int> outputs4 = { 1, { 48 } };
const TfArray<2, int> inputs5 = { 2, { 48,1 } };
const TfArray<1, int> outputs5 = { 1, { 49 } };
const TfLiteDepthwiseConvParams opdata6 = { kTfLitePaddingValid, 2,2, 1, kTfLiteActRelu6, 1,1 };
const TfArray<3, int> inputs6 = { 3, { 49,35,34 } };
const TfArray<1, int> outputs6 = { 1, { 50 } };
const TfLiteConvParams opdata7 = { kTfLitePaddingSame, 1,1, kTfLiteActNone, 1,1 };
const TfArray<3, int> inputs7 = { 3, { 50,33,32 } };
const TfArray<1, int> outputs7 = { 1, { 51 } };
const TfLiteConvParams opdata8 = { kTfLitePaddingSame, 1,1, kTfLiteActRelu6, 1,1 };
const TfArray<3, int> inputs8 = { 3, { 51,31,30 } };
const TfArray<1, int> outputs8 = { 1, { 52 } };
const TfLiteDepthwiseConvParams opdata9 = { kTfLitePaddingSame, 1,1, 1, kTfLiteActRelu6, 1,1 };
const TfArray<3, int> inputs9 = { 3, { 52,29,28 } };
const TfArray<1, int> outputs9 = { 1, { 53 } };
const TfLiteConvParams opdata10 = { kTfLitePaddingSame, 1,1, kTfLiteActNone, 1,1 };
const TfArray<3, int> inputs10 = { 3, { 53,27,26 } };
const TfArray<1, int> outputs10 = { 1, { 54 } };
const TfLiteAddParams opdata11 = { kTfLiteActNone };
const TfArray<2, int> inputs11 = { 2, { 51,54 } };
const TfArray<1, int> outputs11 = { 1, { 55 } };
const TfLiteConvParams opdata12 = { kTfLitePaddingSame, 1,1, kTfLiteActRelu6, 1,1 };
const TfArray<3, int> inputs12 = { 3, { 55,25,24 } };
const TfArray<1, int> outputs12 = { 1, { 56 } };
const TfArray<2, int> inputs13 = { 2, { 56,1 } };
const TfArray<1, int> outputs13 = { 1, { 57 } };
const TfLiteDepthwiseConvParams opdata14 = { kTfLitePaddingValid, 2,2, 1, kTfLiteActRelu6, 1,1 };
const TfArray<3, int> inputs14 = { 3, { 57,23,22 } };
const TfArray<1, int> outputs14 = { 1, { 58 } };
const TfLiteConvParams opdata15 = { kTfLitePaddingSame, 1,1, kTfLiteActNone, 1,1 };
const TfArray<3, int> inputs15 = { 3, { 58,21,20 } };
const TfArray<1, int> outputs15 = { 1, { 59 } };
const TfLiteConvParams opdata16 = { kTfLitePaddingSame, 1,1, kTfLiteActRelu6, 1,1 };
const TfArray<3, int> inputs16 = { 3, { 59,19,18 } };
const TfArray<1, int> outputs16 = { 1, { 60 } };
const TfLiteDepthwiseConvParams opdata17 = { kTfLitePaddingSame, 1,1, 1, kTfLiteActRelu6, 1,1 };
const TfArray<3, int> inputs17 = { 3, { 60,17,16 } };
const TfArray<1, int> outputs17 = { 1, { 61 } };
const TfLiteConvParams opdata18 = { kTfLitePaddingSame, 1,1, kTfLiteActNone, 1,1 };
const TfArray<3, int> inputs18 = { 3, { 61,15,14 } };
const TfArray<1, int> outputs18 = { 1, { 62 } };
const TfLiteAddParams opdata19 = { kTfLiteActNone };
const TfArray<2, int> inputs19 = { 2, { 59,62 } };
const TfArray<1, int> outputs19 = { 1, { 63 } };
const TfLiteConvParams opdata20 = { kTfLitePaddingSame, 1,1, kTfLiteActRelu6, 1,1 };
const TfArray<3, int> inputs20 = { 3, { 63,13,12 } };
const TfArray<1, int> outputs20 = { 1, { 64 } };
const TfLiteDepthwiseConvParams opdata21 = { kTfLitePaddingSame, 1,1, 1, kTfLiteActRelu6, 1,1 };
const TfArray<3, int> inputs21 = { 3, { 64,11,10 } };
const TfArray<1, int> outputs21 = { 1, { 65 } };
const TfLiteConvParams opdata22 = { kTfLitePaddingSame, 1,1, kTfLiteActNone, 1,1 };
const TfArray<3, int> inputs22 = { 3, { 65,9,8 } };
const TfArray<1, int> outputs22 = { 1, { 66 } };
const TfLiteAddParams opdata23 = { kTfLiteActNone };
const TfArray<2, int> inputs23 = { 2, { 63,66 } };
const TfArray<1, int> outputs23 = { 1, { 67 } };
const TfLiteConvParams opdata24 = { kTfLitePaddingSame, 1,1, kTfLiteActRelu6, 1,1 };
const TfArray<3, int> inputs24 = { 3, { 67,7,6 } };
const TfArray<1, int> outputs24 = { 1, { 68 } };
const TfLiteConvParams opdata25 = { kTfLitePaddingValid, 1,1, kTfLiteActRelu, 1,1 };
const TfArray<3, int> inputs25 = { 3, { 68,5,4 } };
const TfArray<1, int> outputs25 = { 1, { 69 } };
const TfLiteConvParams opdata26 = { kTfLitePaddingValid, 1,1, kTfLiteActNone, 1,1 };
const TfArray<3, int> inputs26 = { 3, { 69,3,2 } };
const TfArray<1, int> outputs26 = { 1, { 70 } };
const TfLiteSoftmaxParams opdata27 = { 1 };
const TfArray<1, int> inputs27 = { 1, { 70 } };
const TfArray<1, int> outputs27 = { 1, { 71 } };
};

TensorInfo_t tensorData[] = {
{ kTfLiteArenaRw, kTfLiteInt8, (int32_t*)(tensor_arena + 0), (TfLiteIntArray*)&g0::tensor_dimension0, 2304, {kTfLiteAffineQuantization, const_cast<void*>(static_cast<const void*>(&g0::quant0))}, },
{ kTfLiteMmapRo, kTfLiteInt32, (int32_t*)g0::tensor_data1, (TfLiteIntArray*)&g0::tensor_dimension1, 32, {kTfLiteNoQuantization, nullptr}, },
{ kTfLiteMmapRo, kTfLiteInt32, (int32_t*)g0::tensor_data2, (TfLiteIntArray*)&g0::tensor_dimension2, 8, {kTfLiteAffineQuantization, const_cast<void*>(static_cast<const void*>(&g0::quant2))}, },
{ kTfLiteMmapRo, kTfLiteInt8, (int32_t*)g0::tensor_data3, (TfLiteIntArray*)&g0::tensor_dimension3, 64, {kTfLiteAffineQuantization, const_cast<void*>(static_cast<const void*>(&g0::quant3))}, },
{ kTfLiteMmapRo, kTfLiteInt32, (int32_t*)g0::tensor_data4, (TfLiteIntArray*)&g0::tensor_dimension4, 128, {kTfLiteAffineQuantization, const_cast<void*>(static_cast<const void*>(&g0::quant4))}, },
